<?xml version="1.0"?>
<opencv_storage>
<cascade>
  <stageType>BOOST</stageType>
  <featureType>HAAR</featureType>
  <height>24</height>
  <width>24</width>
  <stageParams>
    <boostType>GAB</boostType>
    <minHitRate>9.9900001287460327e-01</minHitRate>
    <maxFalseAlarm>4.0000000596046448e-01</maxFalseAlarm>
    <weightTrimRate>9.4999999999999996e-01</weightTrimRate>
    <maxDepth>1</maxDepth>
    <maxWeakCount>100</maxWeakCount></stageParams>
  <featureParams>
    <maxCatCount>0</maxCatCount>
    <featSize>1</featSize>
    <mode>BASIC</mode></featureParams>
  <stageNum>12</stageNum>
  <stages>
    <!-- stage 0 -->
    <_>
      <maxWeakCount>4</maxWeakCount>
      <stageThreshold>-6.8583863973617554e-01</stageThreshold>
      <weakClassifiers>
        <_>
          <internalNodes>
            0 -1 49 -3.3690325915813446e-02</internalNodes>
          <leafValues>
            -8.5714286565780640e-01 5.4166668653488159e-01</leafValues></_>
        <_>
          <internalNodes>
            0 -1 24 -1.9450688362121582e-01</internalNodes>
          <leafValues>
            5.1114875078201294e-01 -9.1613310575485229e-01</leafValues></_>
        <_>
          <internalNodes>
            0 -1 57 2.2516172379255295e-02</internalNodes>
          <leafValues>
            -6.5493166446685791e-01 5.8301568031311035e-01</leafValues></_>
        <_>
          <internalNodes>
            0 -1 28 -5.4528172768186778e-05</internalNodes>
          <leafValues>
            4.0133839845657349e-01 -8.9438790082931519e-01</leafValues></_></weakClassifiers></_>
    <!-- stage 1 -->
    <_>
      <maxWeakCount>4</maxWeakCount>
      <stageThreshold>-4.9687156081199646e-01</stageThreshold>
      <weakClassifiers>
        <_>
          <internalNodes>
            0 -1 48 -3.6714948713779449e-02</internalNodes>
          <leafValues>
            -7.0666664838790894e-01 4.8444443941116333e-01</leafValues></_>
        <_>
          <internalNodes>
            0 -1 11 -7.2311125695705414e-03</internalNodes>
          <leafValues>
            3.8247618079185486e-01 -7.6261657476425171e-01</leafValues></_>
        <_>
          <internalNodes>
            0 -1 23 1.2943274341523647e-03</internalNodes>
          <leafValues>
            -5.4934841394424438e-01 7.6676738262176514e-01</leafValues></_>
        <_>
          <internalNodes>
            0 -1 51 -1.0943856614176184e-04</internalNodes>
          <leafValues>
            4.5295202732086182e-01 -8.1444376707077026e-01</leafValues></_></weakClassifiers></_>
    <!-- stage 2 -->
    <_>
      <maxWeakCount>6</maxWeakCount>
      <stageThreshold>-1.2450902462005615e+00</stageThreshold>
      <weakClassifiers>
        <_>
          <internalNodes>
            0 -1 64 1.1611560359597206e-02</internalNodes>
          <leafValues>
            -5.3488373756408691e-01 7.4496644735336304e-01</leafValues></_>
        <_>
          <internalNodes>
            0 -1 35 -1.2416885048151016e-01</internalNodes>
          <leafValues>
            -8.0468589067459106e-01 4.1076502203941345e-01</leafValues></_>
        <_>
          <internalNodes>
            0 -1 65 -7.5199466664344072e-04</internalNodes>
          <leafValues>
            3.7616056203842163e-01 -7.8655922412872314e-01</leafValues></_>
        <_>
          <internalNodes>
            0 -1 21 -2.4237129764514975e-05</internalNodes>
          <leafValues>
            3.9518660306930542e-01 -6.8964701890945435e-01</leafValues></_>
        <_>
          <internalNodes>
            0 -1 4 -1.2409705668687820e-02</internalNodes>
          <leafValues>
            8.7672644853591919e-01 -3.5042858123779297e-01</leafValues></_>
        <_>
          <internalNodes>
            0 -1 26 -3.4649848937988281e-01</internalNodes>
          <leafValues>
            7.5026762485504150e-01 -5.2149164676666260e-01</leafValues></_></weakClassifiers></_>
    <!-- stage 3 -->
    <_>
      <maxWeakCount>5</maxWeakCount>
      <stageThreshold>-9.2232686281204224e-01</stageThreshold>
      <weakClassifiers>
        <_>
          <internalNodes>
            0 -1 40 -4.6970513649284840e-03</internalNodes>
          <leafValues>
            2.9530200362205505e-01 -9.0789473056793213e-01</leafValues></_>
        <_>
          <internalNodes>
            0 -1 6 -1.9623193889856339e-02</internalNodes>
          <leafValues>
            6.7506819963455200e-01 -4.3922352790832520e-01</leafValues></_>
        <_>
          <internalNodes>
            0 -1 53 -2.6189576601609588e-05</internalNodes>
          <leafValues>
            4.0823033452033997e-01 -7.4260258674621582e-01</leafValues></_>
        <_>
          <internalNodes>
            0 -1 58 5.9564076364040375e-03</internalNodes>
          <leafValues>
            -5.0120627880096436e-01 5.8143156766891479e-01</leafValues></_>
        <_>
          <internalNodes>
            0 -1 17 -3.3722242806106806e-03</internalNodes>
          <leafValues>
            4.7269132733345032e-01 -5.6487047672271729e-01</leafValues></_></weakClassifiers></_>
    <!-- stage 4 -->
    <_>
      <maxWeakCount>8</maxWeakCount>
      <stageThreshold>-7.4287474155426025e-01</stageThreshold>
      <weakClassifiers>
        <_>
          <internalNodes>
            0 -1 82 1.6959166154265404e-02</internalNodes>
          <leafValues>
            -3.9156627655029297e-01 6.7796611785888672e-01</leafValues></_>
        <_>
          <internalNodes>
            0 -1 61 1.8264064565300941e-03</internalNodes>
          <leafValues>
            -3.9344349503517151e-01 7.1190392971038818e-01</leafValues></_>
        <_>
          <internalNodes>
            0 -1 15 -9.6062766388058662e-03</internalNodes>
          <leafValues>
            4.4477072358131409e-01 -5.5189871788024902e-01</leafValues></_>
        <_>
          <internalNodes>
            0 -1 63 -1.5901410370133817e-04</internalNodes>
          <leafValues>
            3.4566625952720642e-01 -7.2715753316879272e-01</leafValues></_>
        <_>
          <internalNodes>
            0 -1 1 -6.1651929281651974e-03</internalNodes>
          <leafValues>
            6.5885752439498901e-01 -3.2768043875694275e-01</leafValues></_>
        <_>
          <internalNodes>
            0 -1 44 -1.0957583435811102e-04</internalNodes>
          <leafValues>
            3.4340000152587891e-01 -7.3614752292633057e-01</leafValues></_>
        <_>
          <internalNodes>
            0 -1 8 5.0994418561458588e-03</internalNodes>
          <leafValues>
            -3.9359927177429199e-01 6.9454866647720337e-01</leafValues></_>
        <_>
          <internalNodes>
            0 -1 84 8.2067670300602913e-03</internalNodes>
          <leafValues>
            -2.8413644433021545e-01 7.4122881889343262e-01</leafValues></_></weakClassifiers></_>
    <!-- stage 5 -->
    <_>
      <maxWeakCount>7</maxWeakCount>
      <stageThreshold>-6.9750899076461792e-01</stageThreshold>
      <weakClassifiers>
        <_>
          <internalNodes>
            0 -1 81 -4.9222074449062347e-02</internalNodes>
          <leafValues>
            -7.7631580829620361e-01 2.2818791866302490e-01</leafValues></_>
        <_>
          <internalNodes>
            0 -1 79 -6.6476053325459361e-04</internalNodes>
          <leafValues>
            2.6000145077705383e-01 -6.4592939615249634e-01</leafValues></_>
        <_>
          <internalNodes>
            0 -1 18 -3.0430089682340622e-03</internalNodes>
          <leafValues>
            4.2576709389686584e-01 -5.5270075798034668e-01</leafValues></_>
        <_>
          <internalNodes>
            0 -1 62 -3.0130852246657014e-04</internalNodes>
          <leafValues>
            2.3950552940368652e-01 -8.0965113639831543e-01</leafValues></_>
        <_>
          <internalNodes>
            0 -1 9 -5.7282275520265102e-03</internalNodes>
          <leafValues>
            7.3188525438308716e-01 -3.3336868882179260e-01</leafValues></_>
        <_>
          <internalNodes>
            0 -1 31 -1.0744186874944717e-04</internalNodes>
          <leafValues>
            3.4061986207962036e-01 -7.0145392417907715e-01</leafValues></_>
        <_>
          <internalNodes>
            0 -1 19 -1.3781066518276930e-03</internalNodes>
          <leafValues>
            -7.9808014631271362e-01 2.3300834000110626e-01</leafValues></_></weakClassifiers></_>
    <!-- stage 6 -->
    <_>
      <maxWeakCount>8</maxWeakCount>
      <stageThreshold>-9.6906507015228271e-01</stageThreshold>
      <weakClassifiers>
        <_>
          <internalNodes>
            0 -1 54 -3.0688554979860783e-03</internalNodes>
          <leafValues>
            -4.1780820488929749e-01 4.5569619536399841e-01</leafValues></_>
        <_>
          <internalNodes>
            0 -1 42 -6.0210307128727436e-03</internalNodes>
          <leafValues>
            2.4395944178104401e-01 -8.2363897562026978e-01</leafValues></_>
        <_>
          <internalNodes>
            0 -1 20 5.4165832698345184e-03</internalNodes>
          <leafValues>
            -3.3695393800735474e-01 7.2209286689758301e-01</leafValues></_>
        <_>
          <internalNodes>
            0 -1 71 -2.4646968086017296e-05</internalNodes>
          <leafValues>
            4.3401536345481873e-01 -4.7082707285881042e-01</leafValues></_>
        <_>
          <internalNodes>
            0 -1 52 4.2669591493904591e-04</internalNodes>
          <leafValues>
            2.5823947787284851e-01 -7.6397985219955444e-01</leafValues></_>
        <_>
          <internalNodes>
            0 -1 13 -8.6174435913562775e-02</internalNodes>
          <leafValues>
            -9.5353770256042480e-01 1.4345456659793854e-01</leafValues></_>
        <_>
          <internalNodes>
            0 -1 34 -2.8232025215402246e-04</internalNodes>
          <leafValues>
            1.8633626401424408e-01 -8.5487127304077148e-01</leafValues></_>
        <_>
          <internalNodes>
            0 -1 72 6.9444994442164898e-03</internalNodes>
          <leafValues>
            -4.7592800855636597e-01 4.3836197257041931e-01</leafValues></_></weakClassifiers></_>
    <!-- stage 7 -->
    <_>
      <maxWeakCount>6</maxWeakCount>
      <stageThreshold>-1.0454206466674805e+00</stageThreshold>
      <weakClassifiers>
        <_>
          <internalNodes>
            0 -1 66 1.1328728869557381e-03</internalNodes>
          <leafValues>
            -5.3097343444824219e-01 3.1250000000000000e-01</leafValues></_>
        <_>
          <internalNodes>
            0 -1 25 4.5088129118084908e-03</internalNodes>
          <leafValues>
            -2.4543134868144989e-01 7.9622697830200195e-01</leafValues></_>
        <_>
          <internalNodes>
            0 -1 2 -4.9301367253065109e-03</internalNodes>
          <leafValues>
            5.6825792789459229e-01 -5.1943099498748779e-01</leafValues></_>
        <_>
          <internalNodes>
            0 -1 37 -3.0019140103831887e-04</internalNodes>
          <leafValues>
            3.1719380617141724e-01 -7.0151519775390625e-01</leafValues></_>
        <_>
          <internalNodes>
            0 -1 27 -1.1833576718345284e-04</internalNodes>
          <leafValues>
            3.1255319714546204e-01 -6.6325587034225464e-01</leafValues></_>
        <_>
          <internalNodes>
            0 -1 16 -8.3112465217709541e-03</internalNodes>
          <leafValues>
            3.6800357699394226e-01 -4.9121177196502686e-01</leafValues></_></weakClassifiers></_>
    <!-- stage 8 -->
    <_>
      <maxWeakCount>10</maxWeakCount>
      <stageThreshold>-1.1828347444534302e+00</stageThreshold>
      <weakClassifiers>
        <_>
          <internalNodes>
            0 -1 70 -1.3543579261749983e-03</internalNodes>
          <leafValues>
            6.2745100259780884e-01 -3.2758620381355286e-01</leafValues></_>
        <_>
          <internalNodes>
            0 -1 59 -3.7480974569916725e-03</internalNodes>
          <leafValues>
            8.0914908647537231e-01 -2.6712659001350403e-01</leafValues></_>
        <_>
          <internalNodes>
            0 -1 43 -9.0045010438188910e-04</internalNodes>
          <leafValues>
            3.0134281516075134e-01 -5.9995090961456299e-01</leafValues></_>
        <_>
          <internalNodes>
            0 -1 83 2.9406221583485603e-02</internalNodes>
          <leafValues>
            -2.6522612571716309e-01 6.4027172327041626e-01</leafValues></_>
        <_>
          <internalNodes>
            0 -1 45 -5.6686915922909975e-04</internalNodes>
          <leafValues>
            2.7300217747688293e-01 -6.8264013528823853e-01</leafValues></_>
        <_>
          <internalNodes>
            0 -1 41 -7.3436694219708443e-04</internalNodes>
          <leafValues>
            2.6941618323326111e-01 -6.7813855409622192e-01</leafValues></_>
        <_>
          <internalNodes>
            0 -1 3 -8.8999599218368530e-02</internalNodes>
          <leafValues>
            -8.9456564188003540e-01 1.8625770509243011e-01</leafValues></_>
        <_>
          <internalNodes>
            0 -1 22 -2.6223168242722750e-04</internalNodes>
          <leafValues>
            1.8340924382209778e-01 -8.2753676176071167e-01</leafValues></_>
        <_>
          <internalNodes>
            0 -1 7 -8.0811800435185432e-03</internalNodes>
          <leafValues>
            8.0444359779357910e-01 -2.6810806989669800e-01</leafValues></_>
        <_>
          <internalNodes>
            0 -1 60 1.8886988982558250e-03</internalNodes>
          <leafValues>
            -3.1677770614624023e-01 6.7343771457672119e-01</leafValues></_></weakClassifiers></_>
    <!-- stage 9 -->
    <_>
      <maxWeakCount>8</maxWeakCount>
      <stageThreshold>-7.1018373966217041e-01</stageThreshold>
      <weakClassifiers>
        <_>
          <internalNodes>
            0 -1 30 -1.5437703579664230e-02</internalNodes>
          <leafValues>
            -4.5588234066963196e-01 4.1573032736778259e-01</leafValues></_>
        <_>
          <internalNodes>
            0 -1 73 -3.2644518068991601e-04</internalNodes>
          <leafValues>
            -5.7130175828933716e-01 3.1743073463439941e-01</leafValues></_>
        <_>
          <internalNodes>
            0 -1 32 4.7928560525178909e-03</internalNodes>
          <leafValues>
            2.0947955548763275e-01 -7.4675470590591431e-01</leafValues></_>
        <_>
          <internalNodes>
            0 -1 77 9.8070595413446426e-04</internalNodes>
          <leafValues>
            1.6043326258659363e-01 -8.0934953689575195e-01</leafValues></_>
        <_>
          <internalNodes>
            0 -1 12 -9.0180002152919769e-03</internalNodes>
          <leafValues>
            4.9400085210800171e-01 -3.2596749067306519e-01</leafValues></_>
        <_>
          <internalNodes>
            0 -1 68 -2.9261470772325993e-03</internalNodes>
          <leafValues>
            6.9174855947494507e-01 -3.2837450504302979e-01</leafValues></_>
        <_>
          <internalNodes>
            0 -1 75 6.1949593946337700e-03</internalNodes>
          <leafValues>
            -2.6582098007202148e-01 6.4892327785491943e-01</leafValues></_>
        <_>
          <internalNodes>
            0 -1 55 -3.3282996155321598e-03</internalNodes>
          <leafValues>
            -7.8641170263290405e-01 2.8588378429412842e-01</leafValues></_></weakClassifiers></_>
    <!-- stage 10 -->
    <_>
      <maxWeakCount>10</maxWeakCount>
      <stageThreshold>-8.0275398492813110e-01</stageThreshold>
      <weakClassifiers>
        <_>
          <internalNodes>
            0 -1 80 -2.9244692996144295e-04</internalNodes>
          <leafValues>
            1.3069908320903778e-01 -7.6859503984451294e-01</leafValues></_>
        <_>
          <internalNodes>
            0 -1 85 2.0492100156843662e-03</internalNodes>
          <leafValues>
            -3.4366804361343384e-01 4.2405688762664795e-01</leafValues></_>
        <_>
          <internalNodes>
            0 -1 46 -2.6189576601609588e-05</internalNodes>
          <leafValues>
            2.6518931984901428e-01 -6.2420600652694702e-01</leafValues></_>
        <_>
          <internalNodes>
            0 -1 67 1.3259113766252995e-03</internalNodes>
          <leafValues>
            -1.9144423305988312e-01 8.4250640869140625e-01</leafValues></_>
        <_>
          <internalNodes>
            0 -1 78 -8.0060731852427125e-04</internalNodes>
          <leafValues>
            6.4209413528442383e-01 -2.4063384532928467e-01</leafValues></_>
        <_>
          <internalNodes>
            0 -1 10 -7.4515147134661674e-03</internalNodes>
          <leafValues>
            5.9883248805999756e-01 -2.7059689164161682e-01</leafValues></_>
        <_>
          <internalNodes>
            0 -1 36 1.4605916803702712e-03</internalNodes>
          <leafValues>
            -3.5603964328765869e-01 5.4620063304901123e-01</leafValues></_>
        <_>
          <internalNodes>
            0 -1 47 -2.6843574232771061e-05</internalNodes>
          <leafValues>
            2.7225607633590698e-01 -7.2184771299362183e-01</leafValues></_>
        <_>
          <internalNodes>
            0 -1 38 -2.8172768652439117e-02</internalNodes>
          <leafValues>
            -2.9573974013328552e-01 7.5626158714294434e-01</leafValues></_>
        <_>
          <internalNodes>
            0 -1 76 -1.3620541431009769e-03</internalNodes>
          <leafValues>
            2.5708872079849243e-01 -8.6943197250366211e-01</leafValues></_></weakClassifiers></_>
    <!-- stage 11 -->
    <_>
      <maxWeakCount>11</maxWeakCount>
      <stageThreshold>-1.1624506711959839e+00</stageThreshold>
      <weakClassifiers>
        <_>
          <internalNodes>
            0 -1 69 2.4409117177128792e-03</internalNodes>
          <leafValues>
            -5.9322035312652588e-01 2.0146520435810089e-01</leafValues></_>
        <_>
          <internalNodes>
            0 -1 50 -2.1516899578273296e-03</internalNodes>
          <leafValues>
            -7.7322655916213989e-01 1.6944926977157593e-01</leafValues></_>
        <_>
          <internalNodes>
            0 -1 14 -3.6677591502666473e-02</internalNodes>
          <leafValues>
            -5.9789872169494629e-01 2.6088950037956238e-01</leafValues></_>
        <_>
          <internalNodes>
            0 -1 0 -6.7978701554238796e-04</internalNodes>
          <leafValues>
            -7.3169350624084473e-01 1.8386639654636383e-01</leafValues></_>
        <_>
          <internalNodes>
            0 -1 39 -2.6202159933745861e-03</internalNodes>
          <leafValues>
            5.4122579097747803e-01 -2.8742602467536926e-01</leafValues></_>
        <_>
          <internalNodes>
            0 -1 5 -3.0797820072621107e-03</internalNodes>
          <leafValues>
            4.4476616382598877e-01 -4.6232697367668152e-01</leafValues></_>
        <_>
          <internalNodes>
            0 -1 56 -1.1059913231292740e-04</internalNodes>
          <leafValues>
            2.6343205571174622e-01 -7.4459755420684814e-01</leafValues></_>
        <_>
          <internalNodes>
            0 -1 33 -6.6244928166270256e-04</internalNodes>
          <leafValues>
            -5.2009189128875732e-01 2.4990610778331757e-01</leafValues></_>
        <_>
          <internalNodes>
            0 -1 78 9.6415769075974822e-04</internalNodes>
          <leafValues>
            -2.2418181598186493e-01 6.8958890438079834e-01</leafValues></_>
        <_>
          <internalNodes>
            0 -1 74 -3.4844989422708750e-03</internalNodes>
          <leafValues>
            6.3115447759628296e-01 -2.5510245561599731e-01</leafValues></_>
        <_>
          <internalNodes>
            0 -1 29 -5.3751315135741606e-05</internalNodes>
          <leafValues>
            3.0618333816528320e-01 -5.1604133844375610e-01</leafValues></_></weakClassifiers></_></stages>
  <features>
    <_>
      <rects>
        <_>
          0 2 2 3 -1.</_>
        <_>
          1 2 1 3 2.</_></rects>
      <tilted>0</tilted></_>
    <_>
      <rects>
        <_>
          0 6 4 5 -1.</_>
        <_>
          2 6 2 5 2.</_></rects>
      <tilted>0</tilted></_>
    <_>
      <rects>
        <_>
          0 9 4 4 -1.</_>
        <_>
          2 9 2 4 2.</_></rects>
      <tilted>0</tilted></_>
    <_>
      <rects>
        <_>
          0 9 23 6 -1.</_>
        <_>
          0 12 23 3 2.</_></rects>
      <tilted>0</tilted></_>
    <_>
      <rects>
        <_>
          0 11 4 6 -1.</_>
        <_>
          2 11 2 6 2.</_></rects>
      <tilted>0</tilted></_>
    <_>
      <rects>
        <_>
          0 16 4 2 -1.</_>
        <_>
          2 16 2 2 2.</_></rects>
      <tilted>0</tilted></_>
    <_>
      <rects>
        <_>
          0 16 6 8 -1.</_>
        <_>
          3 16 3 8 2.</_></rects>
      <tilted>0</tilted></_>
    <_>
      <rects>
        <_>
          0 18 4 6 -1.</_>
        <_>
          2 18 2 6 2.</_></rects>
      <tilted>0</tilted></_>
    <_>
      <rects>
        <_>
          1 4 8 1 -1.</_>
        <_>
          5 4 4 1 2.</_></rects>
      <tilted>0</tilted></_>
    <_>
      <rects>
        <_>
          1 5 4 4 -1.</_>
        <_>
          3 5 2 4 2.</_></rects>
      <tilted>0</tilted></_>
    <_>
      <rects>
        <_>
          1 6 2 13 -1.</_>
        <_>
          2 6 1 13 2.</_></rects>
      <tilted>0</tilted></_>
    <_>
      <rects>
        <_>
          1 9 11 4 -1.</_>
        <_>
          1 11 11 2 2.</_></rects>
      <tilted>0</tilted></_>
    <_>
      <rects>
        <_>
          1 18 6 4 -1.</_>
        <_>
          4 18 3 4 2.</_></rects>
      <tilted>0</tilted></_>
    <_>
      <rects>
        <_>
          2 0 2 12 -1.</_>
        <_>
          2 4 2 4 2.</_></rects>
      <tilted>0</tilted></_>
    <_>
      <rects>
        <_>
          2 2 2 6 -1.</_>
        <_>
          2 4 2 2 2.</_></rects>
      <tilted>0</tilted></_>
    <_>
      <rects>
        <_>
          2 12 8 12 -1.</_>
        <_>
          2 12 4 6 2.</_>
        <_>
          6 18 4 6 2.</_></rects>
      <tilted>0</tilted></_>
    <_>
      <rects>
        <_>
          2 16 10 8 -1.</_>
        <_>
          2 16 5 4 2.</_>
        <_>
          7 20 5 4 2.</_></rects>
      <tilted>0</tilted></_>
    <_>
      <rects>
        <_>
          3 8 17 2 -1.</_>
        <_>
          3 9 17 1 2.</_></rects>
      <tilted>0</tilted></_>
    <_>
      <rects>
        <_>
          3 18 12 6 -1.</_>
        <_>
          3 18 6 3 2.</_>
        <_>
          9 21 6 3 2.</_></rects>
      <tilted>0</tilted></_>
    <_>
      <rects>
        <_>
          4 15 12 2 -1.</_>
        <_>
          4 15 6 1 2.</_>
        <_>
          10 16 6 1 2.</_></rects>
      <tilted>0</tilted></_>
    <_>
      <rects>
        <_>
          4 22 16 2 -1.</_>
        <_>
          4 23 16 1 2.</_></rects>
      <tilted>0</tilted></_>
    <_>
      <rects>
        <_>
          4 23 4 1 -1.</_>
        <_>
          6 23 2 1 2.</_></rects>
      <tilted>0</tilted></_>
    <_>
      <rects>
        <_>
          5 13 4 2 -1.</_>
        <_>
          5 14 4 1 2.</_></rects>
      <tilted>0</tilted></_>
    <_>
      <rects>
        <_>
          5 22 17 2 -1.</_>
        <_>
          5 23 17 1 2.</_></rects>
      <tilted>0</tilted></_>
    <_>
      <rects>
        <_>
          6 0 11 22 -1.</_>
        <_>
          6 11 11 11 2.</_></rects>
      <tilted>0</tilted></_>
    <_>
      <rects>
        <_>
          6 1 2 4 -1.</_>
        <_>
          6 3 2 2 2.</_></rects>
      <tilted>0</tilted></_>
    <_>
      <rects>
        <_>
          6 6 13 18 -1.</_>
        <_>
          6 15 13 9 2.</_></rects>
      <tilted>0</tilted></_>
    <_>
      <rects>
        <_>
          6 9 2 2 -1.</_>
        <_>
          6 10 2 1 2.</_></rects>
      <tilted>0</tilted></_>
    <_>
      <rects>
        <_>
          6 13 1 2 -1.</_>
        <_>
          6 14 1 1 2.</_></rects>
      <tilted>0</tilted></_>
    <_>
      <rects>
        <_>
          6 18 1 2 -1.</_>
        <_>
          6 19 1 1 2.</_></rects>
      <tilted>0</tilted></_>
    <_>
      <rects>
        <_>
          6 20 12 1 -1.</_>
        <_>
          10 20 4 1 2.</_></rects>
      <tilted>0</tilted></_>
    <_>
      <rects>
        <_>
          7 11 1 2 -1.</_>
        <_>
          7 12 1 1 2.</_></rects>
      <tilted>0</tilted></_>
    <_>
      <rects>
        <_>
          7 12 10 6 -1.</_>
        <_>
          7 12 5 3 2.</_>
        <_>
          12 15 5 3 2.</_></rects>
      <tilted>0</tilted></_>
    <_>
      <rects>
        <_>
          8 9 14 2 -1.</_>
        <_>
          8 9 7 1 2.</_>
        <_>
          15 10 7 1 2.</_></rects>
      <tilted>0</tilted></_>
    <_>
      <rects>
        <_>
          8 12 3 2 -1.</_>
        <_>
          8 13 3 1 2.</_></rects>
      <tilted>0</tilted></_>
    <_>
      <rects>
        <_>
          9 0 2 24 -1.</_>
        <_>
          9 8 2 8 2.</_></rects>
      <tilted>0</tilted></_>
    <_>
      <rects>
        <_>
          9 3 14 2 -1.</_>
        <_>
          9 3 7 1 2.</_>
        <_>
          16 4 7 1 2.</_></rects>
      <tilted>0</tilted></_>
    <_>
      <rects>
        <_>
          9 14 3 2 -1.</_>
        <_>
          9 15 3 1 2.</_></rects>
      <tilted>0</tilted></_>
    <_>
      <rects>
        <_>
          9 14 12 2 -1.</_>
        <_>
          13 14 4 2 2.</_></rects>
      <tilted>0</tilted></_>
    <_>
      <rects>
        <_>
          9 19 2 4 -1.</_>
        <_>
          9 21 2 2 2.</_></rects>
      <tilted>0</tilted></_>
    <_>
      <rects>
        <_>
          10 7 4 6 -1.</_>
        <_>
          10 10 4 3 2.</_></rects>
      <tilted>0</tilted></_>
    <_>
      <rects>
        <_>
          10 8 7 2 -1.</_>
        <_>
          10 9 7 1 2.</_></rects>
      <tilted>0</tilted></_>
    <_>
      <rects>
        <_>
          10 9 12 4 -1.</_>
        <_>
          10 11 12 2 2.</_></rects>
      <tilted>0</tilted></_>
    <_>
      <rects>
        <_>
          10 11 4 2 -1.</_>
        <_>
          10 12 4 1 2.</_></rects>
      <tilted>0</tilted></_>
    <_>
      <rects>
        <_>
          10 15 1 2 -1.</_>
        <_>
          10 16 1 1 2.</_></rects>
      <tilted>0</tilted></_>
    <_>
      <rects>
        <_>
          10 16 5 2 -1.</_>
        <_>
          10 17 5 1 2.</_></rects>
      <tilted>0</tilted></_>
    <_>
      <rects>
        <_>
          10 17 1 2 -1.</_>
        <_>
          10 18 1 1 2.</_></rects>
      <tilted>0</tilted></_>
    <_>
      <rects>
        <_>
          10 18 2 2 -1.</_>
        <_>
          10 19 2 1 2.</_></rects>
      <tilted>0</tilted></_>
    <_>
      <rects>
        <_>
          10 20 6 4 -1.</_>
        <_>
          12 20 2 4 2.</_></rects>
      <tilted>0</tilted></_>
    <_>
      <rects>
        <_>
          10 21 6 3 -1.</_>
        <_>
          12 21 2 3 2.</_></rects>
      <tilted>0</tilted></_>
    <_>
      <rects>
        <_>
          11 10 10 4 -1.</_>
        <_>
          11 10 5 2 2.</_>
        <_>
          16 12 5 2 2.</_></rects>
      <tilted>0</tilted></_>
    <_>
      <rects>
        <_>
          11 12 1 2 -1.</_>
        <_>
          11 13 1 1 2.</_></rects>
      <tilted>0</tilted></_>
    <_>
      <rects>
        <_>
          11 14 6 2 -1.</_>
        <_>
          11 14 3 1 2.</_>
        <_>
          14 15 3 1 2.</_></rects>
      <tilted>0</tilted></_>
    <_>
      <rects>
        <_>
          11 18 1 2 -1.</_>
        <_>
          11 19 1 1 2.</_></rects>
      <tilted>0</tilted></_>
    <_>
      <rects>
        <_>
          11 22 3 1 -1.</_>
        <_>
          12 22 1 1 2.</_></rects>
      <tilted>0</tilted></_>
    <_>
      <rects>
        <_>
          12 8 12 6 -1.</_>
        <_>
          12 8 6 3 2.</_>
        <_>
          18 11 6 3 2.</_></rects>
      <tilted>0</tilted></_>
    <_>
      <rects>
        <_>
          12 12 1 2 -1.</_>
        <_>
          12 13 1 1 2.</_></rects>
      <tilted>0</tilted></_>
    <_>
      <rects>
        <_>
          12 12 12 12 -1.</_>
        <_>
          12 12 6 6 2.</_>
        <_>
          18 18 6 6 2.</_></rects>
      <tilted>0</tilted></_>
    <_>
      <rects>
        <_>
          12 18 10 6 -1.</_>
        <_>
          12 18 5 3 2.</_>
        <_>
          17 21 5 3 2.</_></rects>
      <tilted>0</tilted></_>
    <_>
      <rects>
        <_>
          13 0 3 4 -1.</_>
        <_>
          13 2 3 2 2.</_></rects>
      <tilted>0</tilted></_>
    <_>
      <rects>
        <_>
          13 1 5 2 -1.</_>
        <_>
          13 2 5 1 2.</_></rects>
      <tilted>0</tilted></_>
    <_>
      <rects>
        <_>
          13 1 10 2 -1.</_>
        <_>
          13 2 10 1 2.</_></rects>
      <tilted>0</tilted></_>
    <_>
      <rects>
        <_>
          13 15 4 2 -1.</_>
        <_>
          13 16 4 1 2.</_></rects>
      <tilted>0</tilted></_>
    <_>
      <rects>
        <_>
          14 13 1 2 -1.</_>
        <_>
          14 14 1 1 2.</_></rects>
      <tilted>0</tilted></_>
    <_>
      <rects>
        <_>
          14 21 10 2 -1.</_>
        <_>
          19 21 5 2 2.</_></rects>
      <tilted>0</tilted></_>
    <_>
      <rects>
        <_>
          15 12 5 2 -1.</_>
        <_>
          15 13 5 1 2.</_></rects>
      <tilted>0</tilted></_>
    <_>
      <rects>
        <_>
          15 22 4 2 -1.</_>
        <_>
          17 22 2 2 2.</_></rects>
      <tilted>0</tilted></_>
    <_>
      <rects>
        <_>
          16 2 4 2 -1.</_>
        <_>
          16 2 2 1 2.</_>
        <_>
          18 3 2 1 2.</_></rects>
      <tilted>0</tilted></_>
    <_>
      <rects>
        <_>
          16 3 6 1 -1.</_>
        <_>
          19 3 3 1 2.</_></rects>
      <tilted>0</tilted></_>
    <_>
      <rects>
        <_>
          16 20 6 3 -1.</_>
        <_>
          19 20 3 3 2.</_></rects>
      <tilted>0</tilted></_>
    <_>
      <rects>
        <_>
          17 2 2 4 -1.</_>
        <_>
          18 2 1 4 2.</_></rects>
      <tilted>0</tilted></_>
    <_>
      <rects>
        <_>
          17 6 1 2 -1.</_>
        <_>
          17 7 1 1 2.</_></rects>
      <tilted>0</tilted></_>
    <_>
      <rects>
        <_>
          17 11 6 10 -1.</_>
        <_>
          17 11 3 5 2.</_>
        <_>
          20 16 3 5 2.</_></rects>
      <tilted>0</tilted></_>
    <_>
      <rects>
        <_>
          17 22 6 2 -1.</_>
        <_>
          17 23 6 1 2.</_></rects>
      <tilted>0</tilted></_>
    <_>
      <rects>
        <_>
          18 2 4 6 -1.</_>
        <_>
          18 2 2 3 2.</_>
        <_>
          20 5 2 3 2.</_></rects>
      <tilted>0</tilted></_>
    <_>
      <rects>
        <_>
          18 2 6 6 -1.</_>
        <_>
          18 2 3 3 2.</_>
        <_>
          21 5 3 3 2.</_></rects>
      <tilted>0</tilted></_>
    <_>
      <rects>
        <_>
          18 7 1 8 -1.</_>
        <_>
          18 11 1 4 2.</_></rects>
      <tilted>0</tilted></_>
    <_>
      <rects>
        <_>
          18 8 2 7 -1.</_>
        <_>
          19 8 1 7 2.</_></rects>
      <tilted>0</tilted></_>
    <_>
      <rects>
        <_>
          19 3 2 4 -1.</_>
        <_>
          19 3 1 2 2.</_>
        <_>
          20 5 1 2 2.</_></rects>
      <tilted>0</tilted></_>
    <_>
      <rects>
        <_>
          19 7 2 4 -1.</_>
        <_>
          19 9 2 2 2.</_></rects>
      <tilted>0</tilted></_>
    <_>
      <rects>
        <_>
          19 10 4 2 -1.</_>
        <_>
          19 11 4 1 2.</_></rects>
      <tilted>0</tilted></_>
    <_>
      <rects>
        <_>
          20 0 3 5 -1.</_>
        <_>
          21 0 1 5 2.</_></rects>
      <tilted>0</tilted></_>
    <_>
      <rects>
        <_>
          20 5 4 12 -1.</_>
        <_>
          22 5 2 12 2.</_></rects>
      <tilted>0</tilted></_>
    <_>
      <rects>
        <_>
          20 7 4 14 -1.</_>
        <_>
          22 7 2 14 2.</_></rects>
      <tilted>0</tilted></_>
    <_>
      <rects>
        <_>
          20 14 4 7 -1.</_>
        <_>
          22 14 2 7 2.</_></rects>
      <tilted>0</tilted></_>
    <_>
      <rects>
        <_>
          21 16 2 8 -1.</_>
        <_>
          22 16 1 8 2.</_></rects>
      <tilted>0</tilted></_></features></cascade>
</opencv_storage>
