<?xml version="1.0"?>
<opencv_storage>
<stage7>
  <maxWeakCount>6</maxWeakCount>
  <stageThreshold>-1.0454206466674805e+00</stageThreshold>
  <weakClassifiers>
    <_>
      <internalNodes>
        0 -1 144012 1.1328728869557381e-03</internalNodes>
      <leafValues>
        -5.3097343444824219e-01 3.1250000000000000e-01</leafValues></_>
    <_>
      <internalNodes>
        0 -1 71625 4.5088129118084908e-03</internalNodes>
      <leafValues>
        -2.4543134868144989e-01 7.9622697830200195e-01</leafValues></_>
    <_>
      <internalNodes>
        0 -1 8200 -4.9301367253065109e-03</internalNodes>
      <leafValues>
        5.6825792789459229e-01 -5.1943099498748779e-01</leafValues></_>
    <_>
      <internalNodes>
        0 -1 105432 -3.0019140103831887e-04</internalNodes>
      <leafValues>
        3.1719380617141724e-01 -7.0151519775390625e-01</leafValues></_>
    <_>
      <internalNodes>
        0 -1 76868 -1.1833576718345284e-04</internalNodes>
      <leafValues>
        3.1255319714546204e-01 -6.6325587034225464e-01</leafValues></_>
    <_>
      <internalNodes>
        0 -1 36727 -8.3112465217709541e-03</internalNodes>
      <leafValues>
        3.6800357699394226e-01 -4.9121177196502686e-01</leafValues></_></weakClassifiers></stage7>
</opencv_storage>
