<?xml version="1.0"?>
<opencv_storage>
<cascade>
  <stageType>BOOST</stageType>
  <featureType>HAAR</featureType>
  <height>24</height>
  <width>24</width>
  <stageParams>
    <boostType>GAB</boostType>
    <minHitRate>9.9900001287460327e-01</minHitRate>
    <maxFalseAlarm>4.0000000596046448e-01</maxFalseAlarm>
    <weightTrimRate>9.4999999999999996e-01</weightTrimRate>
    <maxDepth>1</maxDepth>
    <maxWeakCount>100</maxWeakCount></stageParams>
  <featureParams>
    <maxCatCount>0</maxCatCount>
    <featSize>1</featSize>
    <mode>BASIC</mode></featureParams>
  <stageNum>12</stageNum>
  <stages>
    <!-- stage 0 -->
    <_>
      <maxWeakCount>3</maxWeakCount>
      <stageThreshold>-1.0168470144271851e+00</stageThreshold>
      <weakClassifiers>
        <_>
          <internalNodes>
            0 -1 48 -2.1189924329519272e-02</internalNodes>
          <leafValues>
            -9.0399998426437378e-01 6.1777776479721069e-01</leafValues></_>
        <_>
          <internalNodes>
            0 -1 59 3.1077645719051361e-02</internalNodes>
          <leafValues>
            -7.4258029460906982e-01 7.7449846267700195e-01</leafValues></_>
        <_>
          <internalNodes>
            0 -1 25 -1.6625204682350159e-01</internalNodes>
          <leafValues>
            6.4577752351760864e-01 -8.9204454421997070e-01</leafValues></_></weakClassifiers></_>
    <!-- stage 1 -->
    <_>
      <maxWeakCount>5</maxWeakCount>
      <stageThreshold>-7.2657322883605957e-01</stageThreshold>
      <weakClassifiers>
        <_>
          <internalNodes>
            0 -1 12 -7.4808420613408089e-03</internalNodes>
          <leafValues>
            9.2156863212585449e-01 -5.9036141633987427e-01</leafValues></_>
        <_>
          <internalNodes>
            0 -1 70 3.1395766884088516e-02</internalNodes>
          <leafValues>
            -5.6161671876907349e-01 7.3831790685653687e-01</leafValues></_>
        <_>
          <internalNodes>
            0 -1 49 -9.2353671789169312e-03</internalNodes>
          <leafValues>
            -7.0753973722457886e-01 5.9669053554534912e-01</leafValues></_>
        <_>
          <internalNodes>
            0 -1 27 -1.6250130720436573e-03</internalNodes>
          <leafValues>
            3.7989223003387451e-01 -9.5950150489807129e-01</leafValues></_>
        <_>
          <internalNodes>
            0 -1 2 -8.2983314990997314e-02</internalNodes>
          <leafValues>
            7.5305241346359253e-01 -4.8258835077285767e-01</leafValues></_></weakClassifiers></_>
    <!-- stage 2 -->
    <_>
      <maxWeakCount>5</maxWeakCount>
      <stageThreshold>-1.0560394525527954e+00</stageThreshold>
      <weakClassifiers>
        <_>
          <internalNodes>
            0 -1 81 2.4351250380277634e-02</internalNodes>
          <leafValues>
            -5.7171714305877686e-01 7.9047620296478271e-01</leafValues></_>
        <_>
          <internalNodes>
            0 -1 26 -3.4366454929113388e-04</internalNodes>
          <leafValues>
            3.0855536460876465e-01 -8.7316268682479858e-01</leafValues></_>
        <_>
          <internalNodes>
            0 -1 52 6.9251898676156998e-03</internalNodes>
          <leafValues>
            -6.2765699625015259e-01 3.7788158655166626e-01</leafValues></_>
        <_>
          <internalNodes>
            0 -1 58 -4.3227768037468195e-04</internalNodes>
          <leafValues>
            3.1922990083694458e-01 -8.2504910230636597e-01</leafValues></_>
        <_>
          <internalNodes>
            0 -1 13 -8.2258246839046478e-03</internalNodes>
          <leafValues>
            8.5545504093170166e-01 -3.4571009874343872e-01</leafValues></_></weakClassifiers></_>
    <!-- stage 3 -->
    <_>
      <maxWeakCount>6</maxWeakCount>
      <stageThreshold>-1.3279716968536377e+00</stageThreshold>
      <weakClassifiers>
        <_>
          <internalNodes>
            0 -1 55 -9.1157667338848114e-03</internalNodes>
          <leafValues>
            -8.0745339393615723e-01 2.1582733094692230e-01</leafValues></_>
        <_>
          <internalNodes>
            0 -1 23 -9.0367655502632260e-05</internalNodes>
          <leafValues>
            2.5207221508026123e-01 -7.2769778966903687e-01</leafValues></_>
        <_>
          <internalNodes>
            0 -1 56 -2.7272626757621765e-02</internalNodes>
          <leafValues>
            -1. 2.0582610368728638e-01</leafValues></_>
        <_>
          <internalNodes>
            0 -1 83 -2.3745931684970856e-03</internalNodes>
          <leafValues>
            3.1580322980880737e-01 -6.6509759426116943e-01</leafValues></_>
        <_>
          <internalNodes>
            0 -1 68 4.0767565369606018e-03</internalNodes>
          <leafValues>
            -5.2608501911163330e-01 4.7426414489746094e-01</leafValues></_>
        <_>
          <internalNodes>
            0 -1 51 -5.9079829952679574e-05</internalNodes>
          <leafValues>
            2.1276603639125824e-01 -9.1635620594024658e-01</leafValues></_></weakClassifiers></_>
    <!-- stage 4 -->
    <_>
      <maxWeakCount>7</maxWeakCount>
      <stageThreshold>-1.1186585426330566e+00</stageThreshold>
      <weakClassifiers>
        <_>
          <internalNodes>
            0 -1 19 -9.2292493209242821e-03</internalNodes>
          <leafValues>
            2.0161290466785431e-01 -7.1022725105285645e-01</leafValues></_>
        <_>
          <internalNodes>
            0 -1 34 -5.3978288633516058e-05</internalNodes>
          <leafValues>
            1.8783991038799286e-01 -8.7872105836868286e-01</leafValues></_>
        <_>
          <internalNodes>
            0 -1 3 -4.0195109322667122e-03</internalNodes>
          <leafValues>
            6.2091547250747681e-01 -3.8396057486534119e-01</leafValues></_>
        <_>
          <internalNodes>
            0 -1 69 5.7862587273120880e-03</internalNodes>
          <leafValues>
            -3.1792569160461426e-01 8.0518150329589844e-01</leafValues></_>
        <_>
          <internalNodes>
            0 -1 76 -2.7180800680071115e-04</internalNodes>
          <leafValues>
            3.2073849439620972e-01 -7.8312861919403076e-01</leafValues></_>
        <_>
          <internalNodes>
            0 -1 75 2.0158211700618267e-03</internalNodes>
          <leafValues>
            -5.1699817180633545e-01 4.8641335964202881e-01</leafValues></_>
        <_>
          <internalNodes>
            0 -1 15 1.5286885900422931e-03</internalNodes>
          <leafValues>
            3.0187478661537170e-01 -7.8763818740844727e-01</leafValues></_></weakClassifiers></_>
    <!-- stage 5 -->
    <_>
      <maxWeakCount>5</maxWeakCount>
      <stageThreshold>-1.4657741785049438e+00</stageThreshold>
      <weakClassifiers>
        <_>
          <internalNodes>
            0 -1 62 7.8488057479262352e-03</internalNodes>
          <leafValues>
            -6.7263424396514893e-01 3.0143541097640991e-01</leafValues></_>
        <_>
          <internalNodes>
            0 -1 8 -4.3433932587504387e-03</internalNodes>
          <leafValues>
            4.7709274291992188e-01 -4.7973859310150146e-01</leafValues></_>
        <_>
          <internalNodes>
            0 -1 44 -6.3916388899087906e-04</internalNodes>
          <leafValues>
            3.2888591289520264e-01 -6.3496708869934082e-01</leafValues></_>
        <_>
          <internalNodes>
            0 -1 14 -2.4474567174911499e-01</internalNodes>
          <leafValues>
            6.8524503707885742e-01 -2.9444861412048340e-01</leafValues></_>
        <_>
          <internalNodes>
            0 -1 5 -4.3426686897873878e-03</internalNodes>
          <leafValues>
            6.7123615741729736e-01 -3.6367931962013245e-01</leafValues></_></weakClassifiers></_>
    <!-- stage 6 -->
    <_>
      <maxWeakCount>7</maxWeakCount>
      <stageThreshold>-1.1234405040740967e+00</stageThreshold>
      <weakClassifiers>
        <_>
          <internalNodes>
            0 -1 79 2.6077624410390854e-02</internalNodes>
          <leafValues>
            -5.3846156597137451e-01 4.9579831957817078e-01</leafValues></_>
        <_>
          <internalNodes>
            0 -1 37 1.1448789387941360e-02</internalNodes>
          <leafValues>
            -3.1466659903526306e-01 7.5914853811264038e-01</leafValues></_>
        <_>
          <internalNodes>
            0 -1 71 -2.1329234004952013e-04</internalNodes>
          <leafValues>
            3.0544999241828918e-01 -7.7663880586624146e-01</leafValues></_>
        <_>
          <internalNodes>
            0 -1 32 -3.3608064986765385e-03</internalNodes>
          <leafValues>
            3.4631285071372986e-01 -5.7153201103210449e-01</leafValues></_>
        <_>
          <internalNodes>
            0 -1 64 2.9860422728233971e-05</internalNodes>
          <leafValues>
            -4.8018082976341248e-01 4.1979029774665833e-01</leafValues></_>
        <_>
          <internalNodes>
            0 -1 46 -4.6859924623277038e-05</internalNodes>
          <leafValues>
            2.8897401690483093e-01 -7.2397965192794800e-01</leafValues></_>
        <_>
          <internalNodes>
            0 -1 36 -5.3123526275157928e-02</internalNodes>
          <leafValues>
            -7.1299469470977783e-01 2.0196476578712463e-01</leafValues></_></weakClassifiers></_>
    <!-- stage 7 -->
    <_>
      <maxWeakCount>10</maxWeakCount>
      <stageThreshold>-6.5359103679656982e-01</stageThreshold>
      <weakClassifiers>
        <_>
          <internalNodes>
            0 -1 82 3.1650871038436890e-02</internalNodes>
          <leafValues>
            -5.3138077259063721e-01 4.4262295961380005e-01</leafValues></_>
        <_>
          <internalNodes>
            0 -1 65 -9.2582525685429573e-03</internalNodes>
          <leafValues>
            7.2435575723648071e-01 -3.4851709008216858e-01</leafValues></_>
        <_>
          <internalNodes>
            0 -1 40 -1.1338710784912109e-02</internalNodes>
          <leafValues>
            3.1548419594764709e-01 -7.0769119262695313e-01</leafValues></_>
        <_>
          <internalNodes>
            0 -1 47 -3.7313974462449551e-03</internalNodes>
          <leafValues>
            -5.1765632629394531e-01 4.1051235795021057e-01</leafValues></_>
        <_>
          <internalNodes>
            0 -1 45 -3.7978793261572719e-04</internalNodes>
          <leafValues>
            2.9053622484207153e-01 -6.5995115041732788e-01</leafValues></_>
        <_>
          <internalNodes>
            0 -1 21 -1.6454106662422419e-03</internalNodes>
          <leafValues>
            3.8572373986244202e-01 -4.3448594212532043e-01</leafValues></_>
        <_>
          <internalNodes>
            0 -1 42 -4.3181180953979492e-03</internalNodes>
          <leafValues>
            -9.1394996643066406e-01 1.6644319891929626e-01</leafValues></_>
        <_>
          <internalNodes>
            0 -1 67 -1.6171718016266823e-04</internalNodes>
          <leafValues>
            1.8091775476932526e-01 -7.6539808511734009e-01</leafValues></_>
        <_>
          <internalNodes>
            0 -1 16 -3.7660757079720497e-03</internalNodes>
          <leafValues>
            7.3328387737274170e-01 -2.5959295034408569e-01</leafValues></_>
        <_>
          <internalNodes>
            0 -1 17 3.3194334246218204e-03</internalNodes>
          <leafValues>
            -2.5624632835388184e-01 7.4484407901763916e-01</leafValues></_></weakClassifiers></_>
    <!-- stage 8 -->
    <_>
      <maxWeakCount>11</maxWeakCount>
      <stageThreshold>-8.4813362360000610e-01</stageThreshold>
      <weakClassifiers>
        <_>
          <internalNodes>
            0 -1 29 3.9404821582138538e-03</internalNodes>
          <leafValues>
            -5.6028366088867188e-01 2.0903955399990082e-01</leafValues></_>
        <_>
          <internalNodes>
            0 -1 53 -3.9321137592196465e-03</internalNodes>
          <leafValues>
            -5.2282255887985229e-01 2.4752341210842133e-01</leafValues></_>
        <_>
          <internalNodes>
            0 -1 33 -1.5456536784768105e-03</internalNodes>
          <leafValues>
            1.5939342975616455e-01 -8.7492161989212036e-01</leafValues></_>
        <_>
          <internalNodes>
            0 -1 85 8.4849982522428036e-04</internalNodes>
          <leafValues>
            -3.4423339366912842e-01 4.6116954088211060e-01</leafValues></_>
        <_>
          <internalNodes>
            0 -1 87 5.9720152057707310e-04</internalNodes>
          <leafValues>
            1.6795298457145691e-01 -8.0515742301940918e-01</leafValues></_>
        <_>
          <internalNodes>
            0 -1 66 2.3715575225651264e-03</internalNodes>
          <leafValues>
            -2.8890651464462280e-01 5.2879863977432251e-01</leafValues></_>
        <_>
          <internalNodes>
            0 -1 39 1.6263459110632539e-03</internalNodes>
          <leafValues>
            -2.3177793622016907e-01 7.4225169420242310e-01</leafValues></_>
        <_>
          <internalNodes>
            0 -1 30 -6.4406963065266609e-04</internalNodes>
          <leafValues>
            3.3940741419792175e-01 -4.9338760972023010e-01</leafValues></_>
        <_>
          <internalNodes>
            0 -1 6 7.3457020334899426e-04</internalNodes>
          <leafValues>
            1.9815197587013245e-01 -7.7353680133819580e-01</leafValues></_>
        <_>
          <internalNodes>
            0 -1 60 -5.7939055841416121e-04</internalNodes>
          <leafValues>
            1.5105575323104858e-01 -8.1037390232086182e-01</leafValues></_>
        <_>
          <internalNodes>
            0 -1 22 -8.2989921793341637e-03</internalNodes>
          <leafValues>
            3.1510820984840393e-01 -5.0757294893264771e-01</leafValues></_></weakClassifiers></_>
    <!-- stage 9 -->
    <_>
      <maxWeakCount>9</maxWeakCount>
      <stageThreshold>-9.0506070852279663e-01</stageThreshold>
      <weakClassifiers>
        <_>
          <internalNodes>
            0 -1 1 -1.5012250281870365e-02</internalNodes>
          <leafValues>
            6.3636362552642822e-01 -5.0000000000000000e-01</leafValues></_>
        <_>
          <internalNodes>
            0 -1 54 -2.2315252572298050e-03</internalNodes>
          <leafValues>
            -8.7490200996398926e-01 1.8216998875141144e-01</leafValues></_>
        <_>
          <internalNodes>
            0 -1 24 5.5298088118433952e-03</internalNodes>
          <leafValues>
            -3.4151291847229004e-01 5.4742485284805298e-01</leafValues></_>
        <_>
          <internalNodes>
            0 -1 7 -1.7895805649459362e-03</internalNodes>
          <leafValues>
            6.2500572204589844e-01 -3.1114181876182556e-01</leafValues></_>
        <_>
          <internalNodes>
            0 -1 31 1.6134775942191482e-03</internalNodes>
          <leafValues>
            2.6199695467948914e-01 -7.1186000108718872e-01</leafValues></_>
        <_>
          <internalNodes>
            0 -1 0 -6.5181852551177144e-04</internalNodes>
          <leafValues>
            -7.5181764364242554e-01 1.6588771343231201e-01</leafValues></_>
        <_>
          <internalNodes>
            0 -1 9 5.3535820916295052e-04</internalNodes>
          <leafValues>
            1.3469268381595612e-01 -8.8041239976882935e-01</leafValues></_>
        <_>
          <internalNodes>
            0 -1 61 4.9365533050149679e-04</internalNodes>
          <leafValues>
            1.5317510068416595e-01 -7.1426272392272949e-01</leafValues></_>
        <_>
          <internalNodes>
            0 -1 72 3.1550899147987366e-03</internalNodes>
          <leafValues>
            -5.2416110038757324e-01 3.3110880851745605e-01</leafValues></_></weakClassifiers></_>
    <!-- stage 10 -->
    <_>
      <maxWeakCount>11</maxWeakCount>
      <stageThreshold>-9.2323321104049683e-01</stageThreshold>
      <weakClassifiers>
        <_>
          <internalNodes>
            0 -1 80 2.8317011892795563e-02</internalNodes>
          <leafValues>
            -5.3750002384185791e-01 4.8333331942558289e-01</leafValues></_>
        <_>
          <internalNodes>
            0 -1 10 -3.5526859574019909e-03</internalNodes>
          <leafValues>
            5.4682642221450806e-01 -3.6140516400337219e-01</leafValues></_>
        <_>
          <internalNodes>
            0 -1 35 -2.3895647609606385e-04</internalNodes>
          <leafValues>
            -5.1836365461349487e-01 2.7093169093132019e-01</leafValues></_>
        <_>
          <internalNodes>
            0 -1 4 -1.8051755614578724e-03</internalNodes>
          <leafValues>
            5.0157755613327026e-01 -3.1277185678482056e-01</leafValues></_>
        <_>
          <internalNodes>
            0 -1 78 -2.3243175819516182e-03</internalNodes>
          <leafValues>
            7.0617282390594482e-01 -2.1061313152313232e-01</leafValues></_>
        <_>
          <internalNodes>
            0 -1 74 -2.6840220016310923e-05</internalNodes>
          <leafValues>
            2.9821267724037170e-01 -6.6635864973068237e-01</leafValues></_>
        <_>
          <internalNodes>
            0 -1 77 3.4093216527253389e-04</internalNodes>
          <leafValues>
            -4.5232513546943665e-01 2.8944075107574463e-01</leafValues></_>
        <_>
          <internalNodes>
            0 -1 38 -1.6441915067844093e-04</internalNodes>
          <leafValues>
            1.6181519627571106e-01 -7.8414499759674072e-01</leafValues></_>
        <_>
          <internalNodes>
            0 -1 73 9.0761408209800720e-03</internalNodes>
          <leafValues>
            -2.7998018264770508e-01 5.2027052640914917e-01</leafValues></_>
        <_>
          <internalNodes>
            0 -1 41 -5.6498334743082523e-05</internalNodes>
          <leafValues>
            1.8458561599254608e-01 -7.8667235374450684e-01</leafValues></_>
        <_>
          <internalNodes>
            0 -1 57 -1.6315525863319635e-03</internalNodes>
          <leafValues>
            5.4329246282577515e-01 -2.7572688460350037e-01</leafValues></_></weakClassifiers></_>
    <!-- stage 11 -->
    <_>
      <maxWeakCount>9</maxWeakCount>
      <stageThreshold>-1.0379565954208374e+00</stageThreshold>
      <weakClassifiers>
        <_>
          <internalNodes>
            0 -1 50 2.9906977433711290e-03</internalNodes>
          <leafValues>
            -4.8310139775276184e-01 4.4329896569252014e-01</leafValues></_>
        <_>
          <internalNodes>
            0 -1 43 3.1343601644039154e-02</internalNodes>
          <leafValues>
            -2.2479304671287537e-01 6.5864819288253784e-01</leafValues></_>
        <_>
          <internalNodes>
            0 -1 11 -4.5063951984047890e-03</internalNodes>
          <leafValues>
            4.7859427332878113e-01 -2.8359162807464600e-01</leafValues></_>
        <_>
          <internalNodes>
            0 -1 28 -4.3623510282486677e-04</internalNodes>
          <leafValues>
            -7.1056383848190308e-01 2.1058237552642822e-01</leafValues></_>
        <_>
          <internalNodes>
            0 -1 86 -2.3536472581326962e-03</internalNodes>
          <leafValues>
            -8.1314939260482788e-01 1.6961136460304260e-01</leafValues></_>
        <_>
          <internalNodes>
            0 -1 18 1.9853790581692010e-04</internalNodes>
          <leafValues>
            2.4084497988224030e-01 -4.8220720887184143e-01</leafValues></_>
        <_>
          <internalNodes>
            0 -1 84 9.8077720031142235e-03</internalNodes>
          <leafValues>
            -3.4309950470924377e-01 3.6635670065879822e-01</leafValues></_>
        <_>
          <internalNodes>
            0 -1 63 -2.5021008696057834e-05</internalNodes>
          <leafValues>
            1.9309084117412567e-01 -6.7922079563140869e-01</leafValues></_>
        <_>
          <internalNodes>
            0 -1 20 -4.5813761971658096e-05</internalNodes>
          <leafValues>
            2.6458415389060974e-01 -5.0390464067459106e-01</leafValues></_></weakClassifiers></_></stages>
  <features>
    <_>
      <rects>
        <_>
          0 0 2 4 -1.</_>
        <_>
          1 0 1 4 2.</_></rects>
      <tilted>0</tilted></_>
    <_>
      <rects>
        <_>
          0 0 6 8 -1.</_>
        <_>
          0 0 3 4 2.</_>
        <_>
          3 4 3 4 2.</_></rects>
      <tilted>0</tilted></_>
    <_>
      <rects>
        <_>
          0 2 12 22 -1.</_>
        <_>
          0 2 6 11 2.</_>
        <_>
          6 13 6 11 2.</_></rects>
      <tilted>0</tilted></_>
    <_>
      <rects>
        <_>
          0 7 4 3 -1.</_>
        <_>
          2 7 2 3 2.</_></rects>
      <tilted>0</tilted></_>
    <_>
      <rects>
        <_>
          0 7 6 1 -1.</_>
        <_>
          3 7 3 1 2.</_></rects>
      <tilted>0</tilted></_>
    <_>
      <rects>
        <_>
          0 9 4 3 -1.</_>
        <_>
          2 9 2 3 2.</_></rects>
      <tilted>0</tilted></_>
    <_>
      <rects>
        <_>
          0 12 12 2 -1.</_>
        <_>
          0 12 6 1 2.</_>
        <_>
          6 13 6 1 2.</_></rects>
      <tilted>0</tilted></_>
    <_>
      <rects>
        <_>
          0 16 4 1 -1.</_>
        <_>
          2 16 2 1 2.</_></rects>
      <tilted>0</tilted></_>
    <_>
      <rects>
        <_>
          0 17 4 6 -1.</_>
        <_>
          2 17 2 6 2.</_></rects>
      <tilted>0</tilted></_>
    <_>
      <rects>
        <_>
          1 0 2 2 -1.</_>
        <_>
          2 0 1 2 2.</_></rects>
      <tilted>0</tilted></_>
    <_>
      <rects>
        <_>
          1 4 10 4 -1.</_>
        <_>
          1 4 5 2 2.</_>
        <_>
          6 6 5 2 2.</_></rects>
      <tilted>0</tilted></_>
    <_>
      <rects>
        <_>
          1 5 2 8 -1.</_>
        <_>
          2 5 1 8 2.</_></rects>
      <tilted>0</tilted></_>
    <_>
      <rects>
        <_>
          1 6 2 13 -1.</_>
        <_>
          2 6 1 13 2.</_></rects>
      <tilted>0</tilted></_>
    <_>
      <rects>
        <_>
          1 7 2 13 -1.</_>
        <_>
          2 7 1 13 2.</_></rects>
      <tilted>0</tilted></_>
    <_>
      <rects>
        <_>
          1 11 22 12 -1.</_>
        <_>
          1 17 22 6 2.</_></rects>
      <tilted>0</tilted></_>
    <_>
      <rects>
        <_>
          1 13 18 2 -1.</_>
        <_>
          1 13 9 1 2.</_>
        <_>
          10 14 9 1 2.</_></rects>
      <tilted>0</tilted></_>
    <_>
      <rects>
        <_>
          2 4 8 2 -1.</_>
        <_>
          2 5 8 1 2.</_></rects>
      <tilted>0</tilted></_>
    <_>
      <rects>
        <_>
          2 5 2 15 -1.</_>
        <_>
          3 5 1 15 2.</_></rects>
      <tilted>0</tilted></_>
    <_>
      <rects>
        <_>
          2 8 12 2 -1.</_>
        <_>
          2 8 6 1 2.</_>
        <_>
          8 9 6 1 2.</_></rects>
      <tilted>0</tilted></_>
    <_>
      <rects>
        <_>
          2 14 8 10 -1.</_>
        <_>
          2 14 4 5 2.</_>
        <_>
          6 19 4 5 2.</_></rects>
      <tilted>0</tilted></_>
    <_>
      <rects>
        <_>
          2 21 2 1 -1.</_>
        <_>
          3 21 1 1 2.</_></rects>
      <tilted>0</tilted></_>
    <_>
      <rects>
        <_>
          3 8 2 16 -1.</_>
        <_>
          3 8 1 8 2.</_>
        <_>
          4 16 1 8 2.</_></rects>
      <tilted>0</tilted></_>
    <_>
      <rects>
        <_>
          3 14 10 10 -1.</_>
        <_>
          3 14 5 5 2.</_>
        <_>
          8 19 5 5 2.</_></rects>
      <tilted>0</tilted></_>
    <_>
      <rects>
        <_>
          3 23 6 1 -1.</_>
        <_>
          6 23 3 1 2.</_></rects>
      <tilted>0</tilted></_>
    <_>
      <rects>
        <_>
          4 1 5 4 -1.</_>
        <_>
          4 3 5 2 2.</_></rects>
      <tilted>0</tilted></_>
    <_>
      <rects>
        <_>
          4 1 10 20 -1.</_>
        <_>
          4 11 10 10 2.</_></rects>
      <tilted>0</tilted></_>
    <_>
      <rects>
        <_>
          4 10 4 2 -1.</_>
        <_>
          4 11 4 1 2.</_></rects>
      <tilted>0</tilted></_>
    <_>
      <rects>
        <_>
          4 12 11 2 -1.</_>
        <_>
          4 13 11 1 2.</_></rects>
      <tilted>0</tilted></_>
    <_>
      <rects>
        <_>
          4 13 4 1 -1.</_>
        <_>
          6 13 2 1 2.</_></rects>
      <tilted>0</tilted></_>
    <_>
      <rects>
        <_>
          4 22 20 2 -1.</_>
        <_>
          4 23 20 1 2.</_></rects>
      <tilted>0</tilted></_>
    <_>
      <rects>
        <_>
          5 7 6 2 -1.</_>
        <_>
          5 8 6 1 2.</_></rects>
      <tilted>0</tilted></_>
    <_>
      <rects>
        <_>
          5 12 16 2 -1.</_>
        <_>
          5 12 8 1 2.</_>
        <_>
          13 13 8 1 2.</_></rects>
      <tilted>0</tilted></_>
    <_>
      <rects>
        <_>
          6 8 18 2 -1.</_>
        <_>
          6 9 18 1 2.</_></rects>
      <tilted>0</tilted></_>
    <_>
      <rects>
        <_>
          6 11 4 4 -1.</_>
        <_>
          6 13 4 2 2.</_></rects>
      <tilted>0</tilted></_>
    <_>
      <rects>
        <_>
          6 13 1 2 -1.</_>
        <_>
          6 14 1 1 2.</_></rects>
      <tilted>0</tilted></_>
    <_>
      <rects>
        <_>
          6 17 4 2 -1.</_>
        <_>
          6 17 2 1 2.</_>
        <_>
          8 18 2 1 2.</_></rects>
      <tilted>0</tilted></_>
    <_>
      <rects>
        <_>
          6 21 9 3 -1.</_>
        <_>
          9 21 3 3 2.</_></rects>
      <tilted>0</tilted></_>
    <_>
      <rects>
        <_>
          7 0 4 4 -1.</_>
        <_>
          7 2 4 2 2.</_></rects>
      <tilted>0</tilted></_>
    <_>
      <rects>
        <_>
          7 18 8 2 -1.</_>
        <_>
          7 19 8 1 2.</_></rects>
      <tilted>0</tilted></_>
    <_>
      <rects>
        <_>
          7 20 1 4 -1.</_>
        <_>
          7 22 1 2 2.</_></rects>
      <tilted>0</tilted></_>
    <_>
      <rects>
        <_>
          8 7 7 6 -1.</_>
        <_>
          8 10 7 3 2.</_></rects>
      <tilted>0</tilted></_>
    <_>
      <rects>
        <_>
          8 13 1 2 -1.</_>
        <_>
          8 14 1 1 2.</_></rects>
      <tilted>0</tilted></_>
    <_>
      <rects>
        <_>
          8 14 8 2 -1.</_>
        <_>
          8 15 8 1 2.</_></rects>
      <tilted>0</tilted></_>
    <_>
      <rects>
        <_>
          9 0 9 4 -1.</_>
        <_>
          9 2 9 2 2.</_></rects>
      <tilted>0</tilted></_>
    <_>
      <rects>
        <_>
          9 9 4 2 -1.</_>
        <_>
          9 10 4 1 2.</_></rects>
      <tilted>0</tilted></_>
    <_>
      <rects>
        <_>
          9 15 3 2 -1.</_>
        <_>
          9 16 3 1 2.</_></rects>
      <tilted>0</tilted></_>
    <_>
      <rects>
        <_>
          9 17 1 2 -1.</_>
        <_>
          9 18 1 1 2.</_></rects>
      <tilted>0</tilted></_>
    <_>
      <rects>
        <_>
          9 21 3 1 -1.</_>
        <_>
          10 21 1 1 2.</_></rects>
      <tilted>0</tilted></_>
    <_>
      <rects>
        <_>
          9 21 6 2 -1.</_>
        <_>
          11 21 2 2 2.</_></rects>
      <tilted>0</tilted></_>
    <_>
      <rects>
        <_>
          9 22 3 2 -1.</_>
        <_>
          10 22 1 2 2.</_></rects>
      <tilted>0</tilted></_>
    <_>
      <rects>
        <_>
          10 1 12 2 -1.</_>
        <_>
          10 1 6 1 2.</_>
        <_>
          16 2 6 1 2.</_></rects>
      <tilted>0</tilted></_>
    <_>
      <rects>
        <_>
          10 11 1 2 -1.</_>
        <_>
          10 12 1 1 2.</_></rects>
      <tilted>0</tilted></_>
    <_>
      <rects>
        <_>
          10 16 14 8 -1.</_>
        <_>
          10 16 7 4 2.</_>
        <_>
          17 20 7 4 2.</_></rects>
      <tilted>0</tilted></_>
    <_>
      <rects>
        <_>
          10 23 3 1 -1.</_>
        <_>
          11 23 1 1 2.</_></rects>
      <tilted>0</tilted></_>
    <_>
      <rects>
        <_>
          11 10 10 4 -1.</_>
        <_>
          11 10 5 2 2.</_>
        <_>
          16 12 5 2 2.</_></rects>
      <tilted>0</tilted></_>
    <_>
      <rects>
        <_>
          11 21 3 2 -1.</_>
        <_>
          12 21 1 2 2.</_></rects>
      <tilted>0</tilted></_>
    <_>
      <rects>
        <_>
          12 19 9 1 -1.</_>
        <_>
          15 19 3 1 2.</_></rects>
      <tilted>0</tilted></_>
    <_>
      <rects>
        <_>
          13 1 6 2 -1.</_>
        <_>
          13 1 3 1 2.</_>
        <_>
          16 2 3 1 2.</_></rects>
      <tilted>0</tilted></_>
    <_>
      <rects>
        <_>
          13 15 5 2 -1.</_>
        <_>
          13 16 5 1 2.</_></rects>
      <tilted>0</tilted></_>
    <_>
      <rects>
        <_>
          14 7 10 16 -1.</_>
        <_>
          14 7 5 8 2.</_>
        <_>
          19 15 5 8 2.</_></rects>
      <tilted>0</tilted></_>
    <_>
      <rects>
        <_>
          14 12 5 2 -1.</_>
        <_>
          14 13 5 1 2.</_></rects>
      <tilted>0</tilted></_>
    <_>
      <rects>
        <_>
          14 13 2 8 -1.</_>
        <_>
          14 13 1 4 2.</_>
        <_>
          15 17 1 4 2.</_></rects>
      <tilted>0</tilted></_>
    <_>
      <rects>
        <_>
          14 16 8 8 -1.</_>
        <_>
          14 16 4 4 2.</_>
        <_>
          18 20 4 4 2.</_></rects>
      <tilted>0</tilted></_>
    <_>
      <rects>
        <_>
          14 17 1 2 -1.</_>
        <_>
          14 18 1 1 2.</_></rects>
      <tilted>0</tilted></_>
    <_>
      <rects>
        <_>
          14 22 9 2 -1.</_>
        <_>
          14 23 9 1 2.</_></rects>
      <tilted>0</tilted></_>
    <_>
      <rects>
        <_>
          15 2 6 3 -1.</_>
        <_>
          18 2 3 3 2.</_></rects>
      <tilted>0</tilted></_>
    <_>
      <rects>
        <_>
          15 3 6 4 -1.</_>
        <_>
          15 3 3 2 2.</_>
        <_>
          18 5 3 2 2.</_></rects>
      <tilted>0</tilted></_>
    <_>
      <rects>
        <_>
          15 14 2 2 -1.</_>
        <_>
          15 15 2 1 2.</_></rects>
      <tilted>0</tilted></_>
    <_>
      <rects>
        <_>
          15 21 6 3 -1.</_>
        <_>
          18 21 3 3 2.</_></rects>
      <tilted>0</tilted></_>
    <_>
      <rects>
        <_>
          16 0 2 6 -1.</_>
        <_>
          16 3 2 3 2.</_></rects>
      <tilted>0</tilted></_>
    <_>
      <rects>
        <_>
          16 2 8 22 -1.</_>
        <_>
          16 2 4 11 2.</_>
        <_>
          20 13 4 11 2.</_></rects>
      <tilted>0</tilted></_>
    <_>
      <rects>
        <_>
          16 11 3 2 -1.</_>
        <_>
          16 12 3 1 2.</_></rects>
      <tilted>0</tilted></_>
    <_>
      <rects>
        <_>
          17 11 6 10 -1.</_>
        <_>
          17 11 3 5 2.</_>
        <_>
          20 16 3 5 2.</_></rects>
      <tilted>0</tilted></_>
    <_>
      <rects>
        <_>
          18 1 6 10 -1.</_>
        <_>
          18 1 3 5 2.</_>
        <_>
          21 6 3 5 2.</_></rects>
      <tilted>0</tilted></_>
    <_>
      <rects>
        <_>
          18 10 1 2 -1.</_>
        <_>
          18 11 1 1 2.</_></rects>
      <tilted>0</tilted></_>
    <_>
      <rects>
        <_>
          18 19 4 3 -1.</_>
        <_>
          20 19 2 3 2.</_></rects>
      <tilted>0</tilted></_>
    <_>
      <rects>
        <_>
          19 10 5 2 -1.</_>
        <_>
          19 11 5 1 2.</_></rects>
      <tilted>0</tilted></_>
    <_>
      <rects>
        <_>
          19 20 2 2 -1.</_>
        <_>
          20 20 1 2 2.</_></rects>
      <tilted>0</tilted></_>
    <_>
      <rects>
        <_>
          20 4 2 4 -1.</_>
        <_>
          21 4 1 4 2.</_></rects>
      <tilted>0</tilted></_>
    <_>
      <rects>
        <_>
          20 4 4 13 -1.</_>
        <_>
          22 4 2 13 2.</_></rects>
      <tilted>0</tilted></_>
    <_>
      <rects>
        <_>
          20 5 4 13 -1.</_>
        <_>
          22 5 2 13 2.</_></rects>
      <tilted>0</tilted></_>
    <_>
      <rects>
        <_>
          20 6 4 13 -1.</_>
        <_>
          22 6 2 13 2.</_></rects>
      <tilted>0</tilted></_>
    <_>
      <rects>
        <_>
          20 6 4 17 -1.</_>
        <_>
          22 6 2 17 2.</_></rects>
      <tilted>0</tilted></_>
    <_>
      <rects>
        <_>
          20 7 1 8 -1.</_>
        <_>
          20 11 1 4 2.</_></rects>
      <tilted>0</tilted></_>
    <_>
      <rects>
        <_>
          20 13 4 11 -1.</_>
        <_>
          22 13 2 11 2.</_></rects>
      <tilted>0</tilted></_>
    <_>
      <rects>
        <_>
          20 18 4 1 -1.</_>
        <_>
          22 18 2 1 2.</_></rects>
      <tilted>0</tilted></_>
    <_>
      <rects>
        <_>
          21 0 2 4 -1.</_>
        <_>
          21 2 2 2 2.</_></rects>
      <tilted>0</tilted></_>
    <_>
      <rects>
        <_>
          22 0 2 5 -1.</_>
        <_>
          23 0 1 5 2.</_></rects>
      <tilted>0</tilted></_></features></cascade>
</opencv_storage>
