<?xml version="1.0"?>
<opencv_storage>
<stage4>
  <maxWeakCount>5</maxWeakCount>
  <stageThreshold>-1.2148147821426392e+00</stageThreshold>
  <weakClassifiers>
    <_>
      <internalNodes>
        0 -1 147656 6.4564025960862637e-03</internalNodes>
      <leafValues>
        -8.4931504726409912e-01 1.5584415197372437e-01</leafValues></_>
    <_>
      <internalNodes>
        0 -1 114402 -4.2774062603712082e-03</internalNodes>
      <leafValues>
        -6.0800623893737793e-01 4.2249640822410583e-01</leafValues></_>
    <_>
      <internalNodes>
        0 -1 97805 -6.8641873076558113e-04</internalNodes>
      <leafValues>
        3.3208969235420227e-01 -8.4328907728195190e-01</leafValues></_>
    <_>
      <internalNodes>
        0 -1 59783 -3.0673677101731300e-03</internalNodes>
      <leafValues>
        6.8864226341247559e-01 -4.4524660706520081e-01</leafValues></_>
    <_>
      <internalNodes>
        0 -1 158981 -2.2911842097528279e-04</internalNodes>
      <leafValues>
        3.5566341876983643e-01 -9.4145363569259644e-01</leafValues></_></weakClassifiers></stage4>
</opencv_storage>
