<?xml version="1.0"?>
<opencv_storage>
<stage2>
  <maxWeakCount>6</maxWeakCount>
  <stageThreshold>-8.8577467203140259e-01</stageThreshold>
  <weakClassifiers>
    <_>
      <internalNodes>
        0 -1 4126 -6.6731036640703678e-03</internalNodes>
      <leafValues>
        7.5862067937850952e-01 -5.9504133462905884e-01</leafValues></_>
    <_>
      <internalNodes>
        0 -1 101545 -1.9165243208408356e-01</internalNodes>
      <leafValues>
        5.4744088649749756e-01 -6.7159217596054077e-01</leafValues></_>
    <_>
      <internalNodes>
        0 -1 159166 4.2678378522396088e-03</internalNodes>
      <leafValues>
        -6.7597258090972900e-01 4.8506018519401550e-01</leafValues></_>
    <_>
      <internalNodes>
        0 -1 133012 1.7237935680896044e-03</internalNodes>
      <leafValues>
        3.5965228080749512e-01 -9.1566854715347290e-01</leafValues></_>
    <_>
      <internalNodes>
        0 -1 8387 -1.2611733982339501e-03</internalNodes>
      <leafValues>
        3.3874732255935669e-01 -8.1793439388275146e-01</leafValues></_>
    <_>
      <internalNodes>
        0 -1 26816 -1.9171629101037979e-02</internalNodes>
      <leafValues>
        -8.0566859245300293e-01 4.1036853194236755e-01</leafValues></_></weakClassifiers></stage2>
</opencv_storage>
