<?xml version="1.0"?>
<opencv_storage>
<stage10>
  <maxWeakCount>10</maxWeakCount>
  <stageThreshold>-8.0275398492813110e-01</stageThreshold>
  <weakClassifiers>
    <_>
      <internalNodes>
        0 -1 156881 -2.9244692996144295e-04</internalNodes>
      <leafValues>
        1.3069908320903778e-01 -7.6859503984451294e-01</leafValues></_>
    <_>
      <internalNodes>
        0 -1 161045 2.0492100156843662e-03</internalNodes>
      <leafValues>
        -3.4366804361343384e-01 4.2405688762664795e-01</leafValues></_>
    <_>
      <internalNodes>
        0 -1 113755 -2.6189576601609588e-05</internalNodes>
      <leafValues>
        2.6518931984901428e-01 -6.2420600652694702e-01</leafValues></_>
    <_>
      <internalNodes>
        0 -1 144791 1.3259113766252995e-03</internalNodes>
      <leafValues>
        -1.9144423305988312e-01 8.4250640869140625e-01</leafValues></_>
    <_>
      <internalNodes>
        0 -1 155796 -8.0060731852427125e-04</internalNodes>
      <leafValues>
        6.4209413528442383e-01 -2.4063384532928467e-01</leafValues></_>
    <_>
      <internalNodes>
        0 -1 18847 -7.4515147134661674e-03</internalNodes>
      <leafValues>
        5.9883248805999756e-01 -2.7059689164161682e-01</leafValues></_>
    <_>
      <internalNodes>
        0 -1 100954 1.4605916803702712e-03</internalNodes>
      <leafValues>
        -3.5603964328765869e-01 5.4620063304901123e-01</leafValues></_>
    <_>
      <internalNodes>
        0 -1 113943 -2.6843574232771061e-05</internalNodes>
      <leafValues>
        2.7225607633590698e-01 -7.2184771299362183e-01</leafValues></_>
    <_>
      <internalNodes>
        0 -1 105471 -2.8172768652439117e-02</internalNodes>
      <leafValues>
        -2.9573974013328552e-01 7.5626158714294434e-01</leafValues></_>
    <_>
      <internalNodes>
        0 -1 153565 -1.3620541431009769e-03</internalNodes>
      <leafValues>
        2.5708872079849243e-01 -8.6943197250366211e-01</leafValues></_></weakClassifiers></stage10>
</opencv_storage>
