<?xml version="1.0"?>
<opencv_storage>
<cascade>
  <stageType>BOOST</stageType>
  <featureType>HAAR</featureType>
  <height>24</height>
  <width>24</width>
  <stageParams>
    <boostType>GAB</boostType>
    <minHitRate>9.9900001287460327e-01</minHitRate>
    <maxFalseAlarm>3.0000001192092896e-01</maxFalseAlarm>
    <weightTrimRate>9.4999999999999996e-01</weightTrimRate>
    <maxDepth>1</maxDepth>
    <maxWeakCount>100</maxWeakCount></stageParams>
  <featureParams>
    <maxCatCount>0</maxCatCount>
    <featSize>1</featSize>
    <mode>BASIC</mode></featureParams>
  <stageNum>10</stageNum>
  <stages>
    <!-- stage 0 -->
    <_>
      <maxWeakCount>2</maxWeakCount>
      <stageThreshold>-9.7737886011600494e-02</stageThreshold>
      <weakClassifiers>
        <_>
          <internalNodes>
            0 -1 10 -5.2053801715373993e-02</internalNodes>
          <leafValues>
            7.5257730484008789e-01 -8.9247310161590576e-01</leafValues></_>
        <_>
          <internalNodes>
            0 -1 5 -4.5034497976303101e-02</internalNodes>
          <leafValues>
            8.7102788686752319e-01 -8.5031521320343018e-01</leafValues></_></weakClassifiers></_>
    <!-- stage 1 -->
    <_>
      <maxWeakCount>2</maxWeakCount>
      <stageThreshold>-2.5936979055404663e-01</stageThreshold>
      <weakClassifiers>
        <_>
          <internalNodes>
            0 -1 13 -1.5738252550363541e-02</internalNodes>
          <leafValues>
            6.9696968793869019e-01 -8.6813187599182129e-01</leafValues></_>
        <_>
          <internalNodes>
            0 -1 8 -5.3804116323590279e-03</internalNodes>
          <leafValues>
            6.0876208543777466e-01 -8.1412059068679810e-01</leafValues></_></weakClassifiers></_>
    <!-- stage 2 -->
    <_>
      <maxWeakCount>4</maxWeakCount>
      <stageThreshold>-1.1216337680816650e+00</stageThreshold>
      <weakClassifiers>
        <_>
          <internalNodes>
            0 -1 4 -6.9559834897518158e-02</internalNodes>
          <leafValues>
            8.9041095972061157e-01 -6.4102566242218018e-01</leafValues></_>
        <_>
          <internalNodes>
            0 -1 19 1.6871548723429441e-04</internalNodes>
          <leafValues>
            -9.4447749853134155e-01 5.9153062105178833e-01</leafValues></_>
        <_>
          <internalNodes>
            0 -1 32 7.0621827035211027e-05</internalNodes>
          <leafValues>
            -5.8628392219543457e-01 8.2539445161819458e-01</leafValues></_>
        <_>
          <internalNodes>
            0 -1 1 -6.0549788177013397e-03</internalNodes>
          <leafValues>
            9.0058124065399170e-01 -4.8585486412048340e-01</leafValues></_></weakClassifiers></_>
    <!-- stage 3 -->
    <_>
      <maxWeakCount>4</maxWeakCount>
      <stageThreshold>-2.7897667884826660e-01</stageThreshold>
      <weakClassifiers>
        <_>
          <internalNodes>
            0 -1 15 -7.6638847589492798e-02</internalNodes>
          <leafValues>
            8.3783781528472900e-01 -6.2068963050842285e-01</leafValues></_>
        <_>
          <internalNodes>
            0 -1 24 1.8021463183686137e-03</internalNodes>
          <leafValues>
            -6.5988707542419434e-01 6.6871631145477295e-01</leafValues></_>
        <_>
          <internalNodes>
            0 -1 26 3.2541364431381226e-02</internalNodes>
          <leafValues>
            -7.8016340732574463e-01 5.8531564474105835e-01</leafValues></_>
        <_>
          <internalNodes>
            0 -1 6 -5.3246105089783669e-03</internalNodes>
          <leafValues>
            4.8212230205535889e-01 -9.1231894493103027e-01</leafValues></_></weakClassifiers></_>
    <!-- stage 4 -->
    <_>
      <maxWeakCount>4</maxWeakCount>
      <stageThreshold>-1.8284004926681519e-01</stageThreshold>
      <weakClassifiers>
        <_>
          <internalNodes>
            0 -1 14 -1.1835629120469093e-02</internalNodes>
          <leafValues>
            6.8674701452255249e-01 -6.2616825103759766e-01</leafValues></_>
        <_>
          <internalNodes>
            0 -1 36 -1.1677454458549619e-03</internalNodes>
          <leafValues>
            -8.9130538702011108e-01 4.2103153467178345e-01</leafValues></_>
        <_>
          <internalNodes>
            0 -1 16 -3.6739580333232880e-02</internalNodes>
          <leafValues>
            9.6925002336502075e-01 -4.3431442975997925e-01</leafValues></_>
        <_>
          <internalNodes>
            0 -1 21 -2.1240664646029472e-03</internalNodes>
          <leafValues>
            4.5661106705665588e-01 -9.2745631933212280e-01</leafValues></_></weakClassifiers></_>
    <!-- stage 5 -->
    <_>
      <maxWeakCount>4</maxWeakCount>
      <stageThreshold>-2.5342231988906860e-01</stageThreshold>
      <weakClassifiers>
        <_>
          <internalNodes>
            0 -1 3 -8.0800041556358337e-02</internalNodes>
          <leafValues>
            8.6301368474960327e-01 -6.2393164634704590e-01</leafValues></_>
        <_>
          <internalNodes>
            0 -1 22 -7.9900264972820878e-04</internalNodes>
          <leafValues>
            -8.9857786893844604e-01 4.8808142542839050e-01</leafValues></_>
        <_>
          <internalNodes>
            0 -1 25 2.2468366660177708e-03</internalNodes>
          <leafValues>
            -5.4436367750167847e-01 6.8408232927322388e-01</leafValues></_>
        <_>
          <internalNodes>
            0 -1 9 -5.6705521419644356e-03</internalNodes>
          <leafValues>
            4.8972526192665100e-01 -8.0165445804595947e-01</leafValues></_></weakClassifiers></_>
    <!-- stage 6 -->
    <_>
      <maxWeakCount>4</maxWeakCount>
      <stageThreshold>-5.0368201732635498e-01</stageThreshold>
      <weakClassifiers>
        <_>
          <internalNodes>
            0 -1 11 -5.1003349944949150e-03</internalNodes>
          <leafValues>
            3.8333332538604736e-01 -8.0000001192092896e-01</leafValues></_>
        <_>
          <internalNodes>
            0 -1 34 3.8383450359106064e-02</internalNodes>
          <leafValues>
            -6.0987192392349243e-01 6.3559585809707642e-01</leafValues></_>
        <_>
          <internalNodes>
            0 -1 18 2.8850031085312366e-03</internalNodes>
          <leafValues>
            -6.5819394588470459e-01 4.7963422536849976e-01</leafValues></_>
        <_>
          <internalNodes>
            0 -1 27 1.5886251349002123e-03</internalNodes>
          <leafValues>
            3.8105055689811707e-01 -9.0409207344055176e-01</leafValues></_></weakClassifiers></_>
    <!-- stage 7 -->
    <_>
      <maxWeakCount>4</maxWeakCount>
      <stageThreshold>-4.3873187899589539e-01</stageThreshold>
      <weakClassifiers>
        <_>
          <internalNodes>
            0 -1 31 9.6685197204351425e-03</internalNodes>
          <leafValues>
            -6.2162160873413086e-01 7.4683547019958496e-01</leafValues></_>
        <_>
          <internalNodes>
            0 -1 28 2.5478368625044823e-03</internalNodes>
          <leafValues>
            4.8149099946022034e-01 -1.</leafValues></_>
        <_>
          <internalNodes>
            0 -1 20 5.5422075092792511e-04</internalNodes>
          <leafValues>
            4.8436507582664490e-01 -8.4902149438858032e-01</leafValues></_>
        <_>
          <internalNodes>
            0 -1 7 -4.2052868753671646e-02</internalNodes>
          <leafValues>
            5.5042022466659546e-01 -7.5834435224533081e-01</leafValues></_></weakClassifiers></_>
    <!-- stage 8 -->
    <_>
      <maxWeakCount>3</maxWeakCount>
      <stageThreshold>8.2504928112030029e-02</stageThreshold>
      <weakClassifiers>
        <_>
          <internalNodes>
            0 -1 33 -1.7231624573469162e-02</internalNodes>
          <leafValues>
            5.8333331346511841e-01 -7.0212763547897339e-01</leafValues></_>
        <_>
          <internalNodes>
            0 -1 17 -2.4755567312240601e-02</internalNodes>
          <leafValues>
            -1. 3.7990403175354004e-01</leafValues></_>
        <_>
          <internalNodes>
            0 -1 23 3.9804689586162567e-03</internalNodes>
          <leafValues>
            -7.5925785303115845e-01 4.0472856163978577e-01</leafValues></_></weakClassifiers></_>
    <!-- stage 9 -->
    <_>
      <maxWeakCount>6</maxWeakCount>
      <stageThreshold>-1.1125367879867554e+00</stageThreshold>
      <weakClassifiers>
        <_>
          <internalNodes>
            0 -1 29 1.7086531966924667e-02</internalNodes>
          <leafValues>
            -8.5074627399444580e-01 3.8211381435394287e-01</leafValues></_>
        <_>
          <internalNodes>
            0 -1 2 -1.5471100807189941e-01</internalNodes>
          <leafValues>
            9.3193584680557251e-01 -4.1617646813392639e-01</leafValues></_>
        <_>
          <internalNodes>
            0 -1 0 1.0307224001735449e-03</internalNodes>
          <leafValues>
            -5.6125098466873169e-01 5.3496742248535156e-01</leafValues></_>
        <_>
          <internalNodes>
            0 -1 12 -4.3928145896643400e-04</internalNodes>
          <leafValues>
            4.9269029498100281e-01 -5.8466273546218872e-01</leafValues></_>
        <_>
          <internalNodes>
            0 -1 35 4.8937854444375262e-05</internalNodes>
          <leafValues>
            -6.2778031826019287e-01 4.8968324065208435e-01</leafValues></_>
        <_>
          <internalNodes>
            0 -1 30 6.4217735780403018e-04</internalNodes>
          <leafValues>
            -5.1625072956085205e-01 5.7702404260635376e-01</leafValues></_></weakClassifiers></_></stages>
  <features>
    <_>
      <rects>
        <_>
          0 1 1 21 -1.</_>
        <_>
          0 8 1 7 3.</_></rects>
      <tilted>0</tilted></_>
    <_>
      <rects>
        <_>
          0 1 6 8 -1.</_>
        <_>
          0 1 3 4 2.</_>
        <_>
          3 5 3 4 2.</_></rects>
      <tilted>0</tilted></_>
    <_>
      <rects>
        <_>
          0 2 24 9 -1.</_>
        <_>
          8 2 8 9 3.</_></rects>
      <tilted>0</tilted></_>
    <_>
      <rects>
        <_>
          0 3 6 21 -1.</_>
        <_>
          3 3 3 21 2.</_></rects>
      <tilted>0</tilted></_>
    <_>
      <rects>
        <_>
          0 4 6 18 -1.</_>
        <_>
          3 4 3 18 2.</_></rects>
      <tilted>0</tilted></_>
    <_>
      <rects>
        <_>
          0 6 12 16 -1.</_>
        <_>
          4 6 4 16 3.</_></rects>
      <tilted>0</tilted></_>
    <_>
      <rects>
        <_>
          0 7 9 8 -1.</_>
        <_>
          3 7 3 8 3.</_></rects>
      <tilted>0</tilted></_>
    <_>
      <rects>
        <_>
          0 15 15 9 -1.</_>
        <_>
          5 15 5 9 3.</_></rects>
      <tilted>0</tilted></_>
    <_>
      <rects>
        <_>
          0 18 4 6 -1.</_>
        <_>
          2 18 2 6 2.</_></rects>
      <tilted>0</tilted></_>
    <_>
      <rects>
        <_>
          0 20 6 4 -1.</_>
        <_>
          3 20 3 4 2.</_></rects>
      <tilted>0</tilted></_>
    <_>
      <rects>
        <_>
          2 5 19 8 -1.</_>
        <_>
          2 9 19 4 2.</_></rects>
      <tilted>0</tilted></_>
    <_>
      <rects>
        <_>
          2 7 8 4 -1.</_>
        <_>
          2 9 8 2 2.</_></rects>
      <tilted>0</tilted></_>
    <_>
      <rects>
        <_>
          2 10 8 6 -1.</_>
        <_>
          2 10 4 3 2.</_>
        <_>
          6 13 4 3 2.</_></rects>
      <tilted>0</tilted></_>
    <_>
      <rects>
        <_>
          2 21 21 3 -1.</_>
        <_>
          9 21 7 3 3.</_></rects>
      <tilted>0</tilted></_>
    <_>
      <rects>
        <_>
          3 5 11 4 -1.</_>
        <_>
          3 7 11 2 2.</_></rects>
      <tilted>0</tilted></_>
    <_>
      <rects>
        <_>
          3 17 21 7 -1.</_>
        <_>
          10 17 7 7 3.</_></rects>
      <tilted>0</tilted></_>
    <_>
      <rects>
        <_>
          5 0 10 6 -1.</_>
        <_>
          5 3 10 3 2.</_></rects>
      <tilted>0</tilted></_>
    <_>
      <rects>
        <_>
          5 9 12 8 -1.</_>
        <_>
          9 9 4 8 3.</_></rects>
      <tilted>0</tilted></_>
    <_>
      <rects>
        <_>
          8 4 12 3 -1.</_>
        <_>
          12 4 4 3 3.</_></rects>
      <tilted>0</tilted></_>
    <_>
      <rects>
        <_>
          8 5 6 3 -1.</_>
        <_>
          11 5 3 3 2.</_></rects>
      <tilted>0</tilted></_>
    <_>
      <rects>
        <_>
          8 8 4 6 -1.</_>
        <_>
          8 8 2 3 2.</_>
        <_>
          10 11 2 3 2.</_></rects>
      <tilted>0</tilted></_>
    <_>
      <rects>
        <_>
          8 9 10 4 -1.</_>
        <_>
          8 11 10 2 2.</_></rects>
      <tilted>0</tilted></_>
    <_>
      <rects>
        <_>
          8 18 10 6 -1.</_>
        <_>
          13 18 5 6 2.</_></rects>
      <tilted>0</tilted></_>
    <_>
      <rects>
        <_>
          9 5 9 5 -1.</_>
        <_>
          12 5 3 5 3.</_></rects>
      <tilted>0</tilted></_>
    <_>
      <rects>
        <_>
          10 0 4 8 -1.</_>
        <_>
          10 0 2 4 2.</_>
        <_>
          12 4 2 4 2.</_></rects>
      <tilted>0</tilted></_>
    <_>
      <rects>
        <_>
          10 2 4 6 -1.</_>
        <_>
          10 2 2 3 2.</_>
        <_>
          12 5 2 3 2.</_></rects>
      <tilted>0</tilted></_>
    <_>
      <rects>
        <_>
          10 4 14 20 -1.</_>
        <_>
          10 4 7 10 2.</_>
        <_>
          17 14 7 10 2.</_></rects>
      <tilted>0</tilted></_>
    <_>
      <rects>
        <_>
          10 6 4 6 -1.</_>
        <_>
          10 8 4 2 3.</_></rects>
      <tilted>0</tilted></_>
    <_>
      <rects>
        <_>
          10 12 13 6 -1.</_>
        <_>
          10 14 13 2 3.</_></rects>
      <tilted>0</tilted></_>
    <_>
      <rects>
        <_>
          10 21 14 3 -1.</_>
        <_>
          17 21 7 3 2.</_></rects>
      <tilted>0</tilted></_>
    <_>
      <rects>
        <_>
          12 1 2 6 -1.</_>
        <_>
          12 1 1 3 2.</_>
        <_>
          13 4 1 3 2.</_></rects>
      <tilted>0</tilted></_>
    <_>
      <rects>
        <_>
          16 8 6 16 -1.</_>
        <_>
          16 8 3 8 2.</_>
        <_>
          19 16 3 8 2.</_></rects>
      <tilted>0</tilted></_>
    <_>
      <rects>
        <_>
          16 22 2 2 -1.</_>
        <_>
          16 23 2 1 2.</_></rects>
      <tilted>0</tilted></_>
    <_>
      <rects>
        <_>
          17 6 6 18 -1.</_>
        <_>
          17 12 6 6 3.</_></rects>
      <tilted>0</tilted></_>
    <_>
      <rects>
        <_>
          18 11 6 10 -1.</_>
        <_>
          21 11 3 10 2.</_></rects>
      <tilted>0</tilted></_>
    <_>
      <rects>
        <_>
          19 13 4 2 -1.</_>
        <_>
          19 13 2 1 2.</_>
        <_>
          21 14 2 1 2.</_></rects>
      <tilted>0</tilted></_>
    <_>
      <rects>
        <_>
          20 2 4 18 -1.</_>
        <_>
          20 2 2 9 2.</_>
        <_>
          22 11 2 9 2.</_></rects>
      <tilted>0</tilted></_></features></cascade>
</opencv_storage>
