<?xml version="1.0"?>
<opencv_storage>
<stage10>
  <maxWeakCount>7</maxWeakCount>
  <stageThreshold>-5.1161497831344604e-01</stageThreshold>
  <weakClassifiers>
    <_>
      <internalNodes>
        0 -1 89813 -2.3463759134756401e-05</internalNodes>
      <leafValues>
        4.0000000596046448e-01 -6.7500001192092896e-01</leafValues></_>
    <_>
      <internalNodes>
        0 -1 144601 1.3662252575159073e-02</internalNodes>
      <leafValues>
        -3.2211631536483765e-01 8.4509265422821045e-01</leafValues></_>
    <_>
      <internalNodes>
        0 -1 111427 -5.1787450502160937e-05</internalNodes>
      <leafValues>
        4.1881132125854492e-01 -7.6656210422515869e-01</leafValues></_>
    <_>
      <internalNodes>
        0 -1 11165 5.5822764988988638e-04</internalNodes>
      <leafValues>
        -4.0766847133636475e-01 8.1993222236633301e-01</leafValues></_>
    <_>
      <internalNodes>
        0 -1 151662 -1.2269556464161724e-04</internalNodes>
      <leafValues>
        5.3276860713958740e-01 -4.7285294532775879e-01</leafValues></_>
    <_>
      <internalNodes>
        0 -1 109284 6.1905765905976295e-03</internalNodes>
      <leafValues>
        -7.3218232393264771e-01 4.0116888284683228e-01</leafValues></_>
    <_>
      <internalNodes>
        0 -1 128043 -3.0226464150473475e-04</internalNodes>
      <leafValues>
        8.0374038219451904e-01 -4.0122783184051514e-01</leafValues></_></weakClassifiers></stage10>
</opencv_storage>
