<?xml version="1.0"?>
<opencv_storage>
<stage6>
  <maxWeakCount>6</maxWeakCount>
  <stageThreshold>-1.6422576904296875e+00</stageThreshold>
  <weakClassifiers>
    <_>
      <internalNodes>
        0 -1 71037 -3.6349403671920300e-03</internalNodes>
      <leafValues>
        -1.1111111193895340e-01 -8.7438666820526123e-01</leafValues></_>
    <_>
      <internalNodes>
        0 -1 49459 -5.1688555686268955e-05</internalNodes>
      <leafValues>
        -7.2119109332561493e-02 -8.9336675405502319e-01</leafValues></_>
    <_>
      <internalNodes>
        0 -1 14429 -3.1723219901323318e-02</internalNodes>
      <leafValues>
        -8.6189913749694824e-01 1.6707667708396912e-01</leafValues></_>
    <_>
      <internalNodes>
        0 -1 121209 5.0162989646196365e-03</internalNodes>
      <leafValues>
        -4.9717819690704346e-01 4.8546370863914490e-01</leafValues></_>
    <_>
      <internalNodes>
        0 -1 13185 -6.0588039923459291e-04</internalNodes>
      <leafValues>
        4.1738724708557129e-01 -5.3837156295776367e-01</leafValues></_>
    <_>
      <internalNodes>
        0 -1 111631 -1.0055345483124256e-02</internalNodes>
      <leafValues>
        2.9430145025253296e-01 -7.3670369386672974e-01</leafValues></_></weakClassifiers></stage6>
</opencv_storage>
