<?xml version="1.0"?>
<opencv_storage>
<stage5>
  <maxWeakCount>7</maxWeakCount>
  <stageThreshold>-1.7113474607467651e+00</stageThreshold>
  <weakClassifiers>
    <_>
      <internalNodes>
        0 -1 4999 -3.1232410110533237e-03</internalNodes>
      <leafValues>
        -3.4615385532379150e-01 -8.9618641138076782e-01</leafValues></_>
    <_>
      <internalNodes>
        0 -1 151970 5.8901533484458923e-03</internalNodes>
      <leafValues>
        -5.7187974452972412e-01 5.2469313144683838e-01</leafValues></_>
    <_>
      <internalNodes>
        0 -1 94606 -4.8876293003559113e-03</internalNodes>
      <leafValues>
        3.5437303781509399e-01 -6.7907738685607910e-01</leafValues></_>
    <_>
      <internalNodes>
        0 -1 12270 -4.0592774748802185e-03</internalNodes>
      <leafValues>
        4.9446114897727966e-01 -4.6017843484878540e-01</leafValues></_>
    <_>
      <internalNodes>
        0 -1 119810 -9.2135858722031116e-04</internalNodes>
      <leafValues>
        3.2420158386230469e-01 -7.8657364845275879e-01</leafValues></_>
    <_>
      <internalNodes>
        0 -1 160900 1.0060851927846670e-03</internalNodes>
      <leafValues>
        -5.3230047225952148e-01 4.4236427545547485e-01</leafValues></_>
    <_>
      <internalNodes>
        0 -1 47556 -1.3203730341047049e-03</internalNodes>
      <leafValues>
        2.2675865888595581e-01 -9.3385785818099976e-01</leafValues></_></weakClassifiers></stage5>
</opencv_storage>
