<?xml version="1.0"?>
<opencv_storage>
<cascade>
  <stageType>BOOST</stageType>
  <featureType>HAAR</featureType>
  <height>24</height>
  <width>24</width>
  <stageParams>
    <boostType>GAB</boostType>
    <minHitRate>9.9900001287460327e-01</minHitRate>
    <maxFalseAlarm>3.0000001192092896e-01</maxFalseAlarm>
    <weightTrimRate>9.4999999999999996e-01</weightTrimRate>
    <maxDepth>1</maxDepth>
    <maxWeakCount>100</maxWeakCount></stageParams>
  <featureParams>
    <maxCatCount>0</maxCatCount>
    <featSize>1</featSize>
    <mode>BASIC</mode></featureParams>
  <stageNum>10</stageNum>
  <stages>
    <!-- stage 0 -->
    <_>
      <maxWeakCount>2</maxWeakCount>
      <stageThreshold>7.8654177486896515e-02</stageThreshold>
      <weakClassifiers>
        <_>
          <internalNodes>
            0 -1 6 -1.3994981534779072e-02</internalNodes>
          <leafValues>
            9.1304349899291992e-01 -7.4193549156188965e-01</leafValues></_>
        <_>
          <internalNodes>
            0 -1 11 -4.9917556345462799e-02</internalNodes>
          <leafValues>
            8.2058966159820557e-01 -8.1825733184814453e-01</leafValues></_></weakClassifiers></_>
    <!-- stage 1 -->
    <_>
      <maxWeakCount>4</maxWeakCount>
      <stageThreshold>-2.4206823110580444e-01</stageThreshold>
      <weakClassifiers>
        <_>
          <internalNodes>
            0 -1 1 -1.8459014594554901e-02</internalNodes>
          <leafValues>
            8.4982937574386597e-01 -8.3177572488784790e-01</leafValues></_>
        <_>
          <internalNodes>
            0 -1 34 3.8675216492265463e-03</internalNodes>
          <leafValues>
            -7.5332510471343994e-01 7.9915499687194824e-01</leafValues></_>
        <_>
          <internalNodes>
            0 -1 17 7.7982470393180847e-03</internalNodes>
          <leafValues>
            -6.3146305084228516e-01 7.5141048431396484e-01</leafValues></_>
        <_>
          <internalNodes>
            0 -1 19 5.6734302779659629e-04</internalNodes>
          <leafValues>
            5.9162205457687378e-01 -7.7622830867767334e-01</leafValues></_></weakClassifiers></_>
    <!-- stage 2 -->
    <_>
      <maxWeakCount>4</maxWeakCount>
      <stageThreshold>1.4018645882606506e-01</stageThreshold>
      <weakClassifiers>
        <_>
          <internalNodes>
            0 -1 9 -2.0922608673572540e-02</internalNodes>
          <leafValues>
            8.3643120527267456e-01 -4.9618321657180786e-01</leafValues></_>
        <_>
          <internalNodes>
            0 -1 13 -5.1942178979516029e-03</internalNodes>
          <leafValues>
            7.7162522077560425e-01 -5.4800719022750854e-01</leafValues></_>
        <_>
          <internalNodes>
            0 -1 3 -2.0651767030358315e-02</internalNodes>
          <leafValues>
            7.3646378517150879e-01 -5.6302428245544434e-01</leafValues></_>
        <_>
          <internalNodes>
            0 -1 27 6.2255668453872204e-03</internalNodes>
          <leafValues>
            4.6065217256546021e-01 -8.7171936035156250e-01</leafValues></_></weakClassifiers></_>
    <!-- stage 3 -->
    <_>
      <maxWeakCount>5</maxWeakCount>
      <stageThreshold>-5.3500258922576904e-01</stageThreshold>
      <weakClassifiers>
        <_>
          <internalNodes>
            0 -1 24 -5.9161952231079340e-04</internalNodes>
          <leafValues>
            -8.2499998807907104e-01 7.0625001192092896e-01</leafValues></_>
        <_>
          <internalNodes>
            0 -1 15 -1.4177497476339340e-02</internalNodes>
          <leafValues>
            8.1202179193496704e-01 -6.1651754379272461e-01</leafValues></_>
        <_>
          <internalNodes>
            0 -1 16 -5.1885984838008881e-02</internalNodes>
          <leafValues>
            9.5861667394638062e-01 -3.5855850577354431e-01</leafValues></_>
        <_>
          <internalNodes>
            0 -1 39 -1.7750251572579145e-05</internalNodes>
          <leafValues>
            5.6834441423416138e-01 -6.2470859289169312e-01</leafValues></_>
        <_>
          <internalNodes>
            0 -1 33 -5.2222365047782660e-04</internalNodes>
          <leafValues>
            -9.7892069816589355e-01 3.5853204131126404e-01</leafValues></_></weakClassifiers></_>
    <!-- stage 4 -->
    <_>
      <maxWeakCount>4</maxWeakCount>
      <stageThreshold>2.3104110360145569e-01</stageThreshold>
      <weakClassifiers>
        <_>
          <internalNodes>
            0 -1 22 3.1149957794696093e-04</internalNodes>
          <leafValues>
            7.6388889551162720e-01 -5.3571426868438721e-01</leafValues></_>
        <_>
          <internalNodes>
            0 -1 28 2.3921571671962738e-02</internalNodes>
          <leafValues>
            -5.0103729963302612e-01 6.8979215621948242e-01</leafValues></_>
        <_>
          <internalNodes>
            0 -1 4 -7.4349478818476200e-03</internalNodes>
          <leafValues>
            5.8251613378524780e-01 -5.8224695920944214e-01</leafValues></_>
        <_>
          <internalNodes>
            0 -1 36 -1.8205440137535334e-03</internalNodes>
          <leafValues>
            6.8527656793594360e-01 -4.7405758500099182e-01</leafValues></_></weakClassifiers></_>
    <!-- stage 5 -->
    <_>
      <maxWeakCount>6</maxWeakCount>
      <stageThreshold>4.3874099850654602e-02</stageThreshold>
      <weakClassifiers>
        <_>
          <internalNodes>
            0 -1 0 -5.8391094207763672e-02</internalNodes>
          <leafValues>
            8.0228137969970703e-01 -3.7226277589797974e-01</leafValues></_>
        <_>
          <internalNodes>
            0 -1 38 1.0942585067823529e-03</internalNodes>
          <leafValues>
            -6.4709210395812988e-01 5.1064294576644897e-01</leafValues></_>
        <_>
          <internalNodes>
            0 -1 18 3.3648135140538216e-03</internalNodes>
          <leafValues>
            -3.5391438007354736e-01 8.4348332881927490e-01</leafValues></_>
        <_>
          <internalNodes>
            0 -1 5 -4.3850094079971313e-03</internalNodes>
          <leafValues>
            3.8723766803741455e-01 -8.1450104713439941e-01</leafValues></_>
        <_>
          <internalNodes>
            0 -1 7 -1.7148376209661365e-03</internalNodes>
          <leafValues>
            4.2375725507736206e-01 -6.5806698799133301e-01</leafValues></_>
        <_>
          <internalNodes>
            0 -1 25 3.0079567804932594e-03</internalNodes>
          <leafValues>
            -5.2439206838607788e-01 6.0301059484481812e-01</leafValues></_></weakClassifiers></_>
    <!-- stage 6 -->
    <_>
      <maxWeakCount>5</maxWeakCount>
      <stageThreshold>-5.6539746001362801e-03</stageThreshold>
      <weakClassifiers>
        <_>
          <internalNodes>
            0 -1 32 -6.0551459901034832e-03</internalNodes>
          <leafValues>
            -8.7179487943649292e-01 7.0807451009750366e-01</leafValues></_>
        <_>
          <internalNodes>
            0 -1 8 -3.9853579364717007e-03</internalNodes>
          <leafValues>
            5.5118221044540405e-01 -7.6003110408782959e-01</leafValues></_>
        <_>
          <internalNodes>
            0 -1 35 -1.6144523397088051e-02</internalNodes>
          <leafValues>
            5.3904789686203003e-01 -7.9571676254272461e-01</leafValues></_>
        <_>
          <internalNodes>
            0 -1 40 -9.7913888748735189e-04</internalNodes>
          <leafValues>
            -8.1935751438140869e-01 3.3470046520233154e-01</leafValues></_>
        <_>
          <internalNodes>
            0 -1 2 -9.6382042393088341e-03</internalNodes>
          <leafValues>
            5.8065569400787354e-01 -5.5878967046737671e-01</leafValues></_></weakClassifiers></_>
    <!-- stage 7 -->
    <_>
      <maxWeakCount>4</maxWeakCount>
      <stageThreshold>-4.5917384326457977e-02</stageThreshold>
      <weakClassifiers>
        <_>
          <internalNodes>
            0 -1 23 4.8448974266648293e-03</internalNodes>
          <leafValues>
            6.9696968793869019e-01 -1.</leafValues></_>
        <_>
          <internalNodes>
            0 -1 41 1.9660227000713348e-02</internalNodes>
          <leafValues>
            -4.9602904915809631e-01 8.0604189634323120e-01</leafValues></_>
        <_>
          <internalNodes>
            0 -1 29 -1.0216182563453913e-03</internalNodes>
          <leafValues>
            5.9183615446090698e-01 -5.6060975790023804e-01</leafValues></_>
        <_>
          <internalNodes>
            0 -1 21 -3.6003184504806995e-03</internalNodes>
          <leafValues>
            -9.9353748559951782e-01 3.1375172734260559e-01</leafValues></_></weakClassifiers></_>
    <!-- stage 8 -->
    <_>
      <maxWeakCount>5</maxWeakCount>
      <stageThreshold>2.2345402836799622e-01</stageThreshold>
      <weakClassifiers>
        <_>
          <internalNodes>
            0 -1 37 2.7867248281836510e-02</internalNodes>
          <leafValues>
            -3.9344263076782227e-01 7.4820142984390259e-01</leafValues></_>
        <_>
          <internalNodes>
            0 -1 20 4.1314209811389446e-03</internalNodes>
          <leafValues>
            -4.9088791012763977e-01 6.0411477088928223e-01</leafValues></_>
        <_>
          <internalNodes>
            0 -1 31 5.2058028813917190e-05</internalNodes>
          <leafValues>
            -5.7512533664703369e-01 5.2257794141769409e-01</leafValues></_>
        <_>
          <internalNodes>
            0 -1 26 1.8536129500716925e-03</internalNodes>
          <leafValues>
            3.2468932867050171e-01 -8.9110016822814941e-01</leafValues></_>
        <_>
          <internalNodes>
            0 -1 10 2.5159262804663740e-05</internalNodes>
          <leafValues>
            -7.1656119823455811e-01 3.8130408525466919e-01</leafValues></_></weakClassifiers></_>
    <!-- stage 9 -->
    <_>
      <maxWeakCount>5</maxWeakCount>
      <stageThreshold>-5.3125178813934326e-01</stageThreshold>
      <weakClassifiers>
        <_>
          <internalNodes>
            0 -1 30 -1.1094309389591217e-02</internalNodes>
          <leafValues>
            -7.2307693958282471e-01 6.1791044473648071e-01</leafValues></_>
        <_>
          <internalNodes>
            0 -1 42 7.4629932641983032e-03</internalNodes>
          <leafValues>
            -3.7276834249496460e-01 7.4946939945220947e-01</leafValues></_>
        <_>
          <internalNodes>
            0 -1 14 -1.4580510323867202e-03</internalNodes>
          <leafValues>
            4.1401687264442444e-01 -7.2736167907714844e-01</leafValues></_>
        <_>
          <internalNodes>
            0 -1 43 8.5362384561449289e-04</internalNodes>
          <leafValues>
            -4.1532146930694580e-01 7.1401482820510864e-01</leafValues></_>
        <_>
          <internalNodes>
            0 -1 12 1.1084049474447966e-03</internalNodes>
          <leafValues>
            3.6628925800323486e-01 -8.0851304531097412e-01</leafValues></_></weakClassifiers></_></stages>
  <features>
    <_>
      <rects>
        <_>
          0 4 6 20 -1.</_>
        <_>
          3 4 3 20 2.</_></rects>
      <tilted>0</tilted></_>
    <_>
      <rects>
        <_>
          0 7 9 17 -1.</_>
        <_>
          3 7 3 17 3.</_></rects>
      <tilted>0</tilted></_>
    <_>
      <rects>
        <_>
          0 8 6 5 -1.</_>
        <_>
          2 8 2 5 3.</_></rects>
      <tilted>0</tilted></_>
    <_>
      <rects>
        <_>
          0 8 4 13 -1.</_>
        <_>
          2 8 2 13 2.</_></rects>
      <tilted>0</tilted></_>
    <_>
      <rects>
        <_>
          0 8 6 3 -1.</_>
        <_>
          3 8 3 3 2.</_></rects>
      <tilted>0</tilted></_>
    <_>
      <rects>
        <_>
          0 8 14 4 -1.</_>
        <_>
          0 10 14 2 2.</_></rects>
      <tilted>0</tilted></_>
    <_>
      <rects>
        <_>
          0 9 4 15 -1.</_>
        <_>
          2 9 2 15 2.</_></rects>
      <tilted>0</tilted></_>
    <_>
      <rects>
        <_>
          0 12 9 1 -1.</_>
        <_>
          3 12 3 1 3.</_></rects>
      <tilted>0</tilted></_>
    <_>
      <rects>
        <_>
          0 18 4 6 -1.</_>
        <_>
          2 18 2 6 2.</_></rects>
      <tilted>0</tilted></_>
    <_>
      <rects>
        <_>
          0 22 24 2 -1.</_>
        <_>
          8 22 8 2 3.</_></rects>
      <tilted>0</tilted></_>
    <_>
      <rects>
        <_>
          1 0 2 9 -1.</_>
        <_>
          1 3 2 3 3.</_></rects>
      <tilted>0</tilted></_>
    <_>
      <rects>
        <_>
          1 5 20 8 -1.</_>
        <_>
          1 9 20 4 2.</_></rects>
      <tilted>0</tilted></_>
    <_>
      <rects>
        <_>
          1 17 9 4 -1.</_>
        <_>
          1 19 9 2 2.</_></rects>
      <tilted>0</tilted></_>
    <_>
      <rects>
        <_>
          2 5 5 4 -1.</_>
        <_>
          2 7 5 2 2.</_></rects>
      <tilted>0</tilted></_>
    <_>
      <rects>
        <_>
          2 7 9 2 -1.</_>
        <_>
          2 8 9 1 2.</_></rects>
      <tilted>0</tilted></_>
    <_>
      <rects>
        <_>
          2 22 21 1 -1.</_>
        <_>
          9 22 7 1 3.</_></rects>
      <tilted>0</tilted></_>
    <_>
      <rects>
        <_>
          3 0 8 8 -1.</_>
        <_>
          3 4 8 4 2.</_></rects>
      <tilted>0</tilted></_>
    <_>
      <rects>
        <_>
          3 1 14 6 -1.</_>
        <_>
          3 1 7 3 2.</_>
        <_>
          10 4 7 3 2.</_></rects>
      <tilted>0</tilted></_>
    <_>
      <rects>
        <_>
          3 3 14 2 -1.</_>
        <_>
          3 3 7 1 2.</_>
        <_>
          10 4 7 1 2.</_></rects>
      <tilted>0</tilted></_>
    <_>
      <rects>
        <_>
          3 12 9 12 -1.</_>
        <_>
          6 12 3 12 3.</_></rects>
      <tilted>0</tilted></_>
    <_>
      <rects>
        <_>
          5 1 8 6 -1.</_>
        <_>
          5 1 4 3 2.</_>
        <_>
          9 4 4 3 2.</_></rects>
      <tilted>0</tilted></_>
    <_>
      <rects>
        <_>
          5 14 12 1 -1.</_>
        <_>
          9 14 4 1 3.</_></rects>
      <tilted>0</tilted></_>
    <_>
      <rects>
        <_>
          5 22 6 1 -1.</_>
        <_>
          8 22 3 1 2.</_></rects>
      <tilted>0</tilted></_>
    <_>
      <rects>
        <_>
          6 4 5 14 -1.</_>
        <_>
          6 11 5 7 2.</_></rects>
      <tilted>0</tilted></_>
    <_>
      <rects>
        <_>
          7 5 8 5 -1.</_>
        <_>
          11 5 4 5 2.</_></rects>
      <tilted>0</tilted></_>
    <_>
      <rects>
        <_>
          8 0 9 4 -1.</_>
        <_>
          11 0 3 4 3.</_></rects>
      <tilted>0</tilted></_>
    <_>
      <rects>
        <_>
          9 8 5 6 -1.</_>
        <_>
          9 10 5 2 3.</_></rects>
      <tilted>0</tilted></_>
    <_>
      <rects>
        <_>
          10 9 13 12 -1.</_>
        <_>
          10 13 13 4 3.</_></rects>
      <tilted>0</tilted></_>
    <_>
      <rects>
        <_>
          10 12 14 12 -1.</_>
        <_>
          10 12 7 6 2.</_>
        <_>
          17 18 7 6 2.</_></rects>
      <tilted>0</tilted></_>
    <_>
      <rects>
        <_>
          11 7 6 2 -1.</_>
        <_>
          11 8 6 1 2.</_></rects>
      <tilted>0</tilted></_>
    <_>
      <rects>
        <_>
          11 9 10 7 -1.</_>
        <_>
          16 9 5 7 2.</_></rects>
      <tilted>0</tilted></_>
    <_>
      <rects>
        <_>
          12 4 2 3 -1.</_>
        <_>
          13 4 1 3 2.</_></rects>
      <tilted>0</tilted></_>
    <_>
      <rects>
        <_>
          12 6 8 18 -1.</_>
        <_>
          12 6 4 9 2.</_>
        <_>
          16 15 4 9 2.</_></rects>
      <tilted>0</tilted></_>
    <_>
      <rects>
        <_>
          12 18 2 5 -1.</_>
        <_>
          13 18 1 5 2.</_></rects>
      <tilted>0</tilted></_>
    <_>
      <rects>
        <_>
          12 21 12 1 -1.</_>
        <_>
          18 21 6 1 2.</_></rects>
      <tilted>0</tilted></_>
    <_>
      <rects>
        <_>
          14 0 2 18 -1.</_>
        <_>
          14 9 2 9 2.</_></rects>
      <tilted>0</tilted></_>
    <_>
      <rects>
        <_>
          14 19 2 4 -1.</_>
        <_>
          14 21 2 2 2.</_></rects>
      <tilted>0</tilted></_>
    <_>
      <rects>
        <_>
          16 9 8 14 -1.</_>
        <_>
          20 9 4 14 2.</_></rects>
      <tilted>0</tilted></_>
    <_>
      <rects>
        <_>
          17 8 4 16 -1.</_>
        <_>
          17 8 2 8 2.</_>
        <_>
          19 16 2 8 2.</_></rects>
      <tilted>0</tilted></_>
    <_>
      <rects>
        <_>
          18 11 1 2 -1.</_>
        <_>
          18 12 1 1 2.</_></rects>
      <tilted>0</tilted></_>
    <_>
      <rects>
        <_>
          18 21 6 2 -1.</_>
        <_>
          18 22 6 1 2.</_></rects>
      <tilted>0</tilted></_>
    <_>
      <rects>
        <_>
          19 2 4 21 -1.</_>
        <_>
          21 2 2 21 2.</_></rects>
      <tilted>0</tilted></_>
    <_>
      <rects>
        <_>
          20 2 4 14 -1.</_>
        <_>
          20 2 2 7 2.</_>
        <_>
          22 9 2 7 2.</_></rects>
      <tilted>0</tilted></_>
    <_>
      <rects>
        <_>
          21 13 3 7 -1.</_>
        <_>
          22 13 1 7 3.</_></rects>
      <tilted>0</tilted></_></features></cascade>
</opencv_storage>
